//#include "../jedi.h"

#ifndef W5_H_
#define W5_H_


input_t w5[N_LAYER_6 * N_LAYER_8] = {
0.447935,0.653352,0.057288,-0.702160,0.127015,0.046030,-0.139079,-0.006537,-0.038234,-0.025347,0.235373,-0.019871,0.132651,0.654071,0.368960,0.297214,0.199280,-0.033286,0.132881,0.000603,-0.353810,0.169591,0.200113,0.187078,0.035404,0.043996,0.092260,0.007217,-0.350769,-0.695159,-0.115936,0.042210,0.467761,-0.208632,-0.687011,0.204529,0.117223,-0.023246,-0.104964,0.187831,0.089684,0.103918,-0.116875,-0.651785,0.124840,-0.182323,-0.568099,0.031803,0.101115,0.004998,0.138033,0.159774,0.168451,-0.643613,0.107959,0.018238,0.155986,-0.043947,0.103733,0.064126,0.196437,-0.022692,0.076577,0.064993,0.280469,0.100643,-0.067032,-0.085538,0.035674,0.234508,-0.069337,0.205838,0.003031,0.020337,-0.275322,-0.054039,-0.143763,-0.097945,0.130465,-0.162391,0.097668,0.059458,0.024131,-0.210025,-0.043470,-0.152324,0.047708,0.052537,0.057797,0.115492,0.122907,0.014118,0.142326,0.092135,-0.026557,0.186381,0.194482,-0.067088,-0.167366,-0.224537,-0.232002,0.086107,-0.161094,0.047861,0.027996,0.046764,0.236936,-0.045620,0.186964,0.114325,0.095186,-0.074484,0.058040,0.128491,-0.041908,-0.106626,-0.198928,0.123549,-0.024019,0.138142,-0.082073,0.107011,0.030082,0.083616,0.075667,0.068604,0.022261,0.097027,0.070728,0.130849,0.079712,0.125047,0.107015,-0.223655,-0.113194,-0.373531,0.094203,0.012512,-0.009897,-0.091353,-0.039177,0.019926,0.043477,-0.057057,-0.208558,-0.168956,-0.057859,0.254854,0.116293,-0.032854,-0.155389,-0.141776,-0.029758,0.119862,0.021800,0.041666,0.045782,-0.193912,-0.279351,-0.243963,-0.106447,-0.040557,-0.017249,0.097450,0.224260,-0.283300,-0.088707,-0.569630,-0.042350,0.111634,0.235796,-1.422715,0.033467,0.343672,-0.283187,1.160125,-0.111628,-0.233775,0.761755,0.287513,-1.028923,-0.165684,0.052499,-1.575601,-0.762005,0.002484,-2.454163,0.560190,0.855375,-0.276340,-0.880153,0.142071,0.050761,0.151778,0.234928,-0.072115,-0.145317,-0.216874,0.166385,0.041766,-0.234948,-0.080753,-0.027043,0.037540,0.065103,-0.078906,0.106236,0.032252,0.104288,-0.120907,0.157087,0.090782,0.059202,-0.002459,-0.006966,0.182966,0.114482,-0.010084,0.208205,-0.136216,-0.370156,-0.150937,-0.132756,0.165007,0.556982,-0.039917,0.308440,0.117563,0.084148,0.288002,0.118804,-0.087830,0.059949,-0.076479,-0.261122,-0.342413,-0.238006,0.041307,-0.005635,-0.120961,-0.244317,0.037002,-0.229847,-0.105657,-0.146677,0.032070,-0.124651,0.024978,-0.120646,0.049207,0.158100,0.058231,0.068035,-0.084219,0.056185,-0.058937,0.082471,-0.114678,-0.080607,0.343640,-0.138555,0.198078,0.088926,-0.015943,0.046619,-0.140676,-0.150774,-0.175544,-0.219481,0.065852,0.014153,-0.054407,0.102110,-0.012356,0.104252,0.050750,-0.038524,-0.068045,-0.052762,-0.180246,0.098346,0.014598,0.056223,-0.406045,0.024375,0.033290,0.024932,-0.216131,-0.085693,-0.157673,0.157496,-0.123749,-0.298151,0.064503,0.118559,0.096524,0.264746,-0.046763,0.019944,0.028607,-0.088669,-0.136133,-0.084577,-0.256447,0.064161,0.054542,-0.064742,-0.793710,0.168618,-0.001354,0.141445,0.210027,-0.086090,-0.033729,-0.140205,-0.145690,0.034523,0.494519,0.396271,-0.066041,0.202682,0.048800,0.353047,-0.645147,-0.106682,0.063289,-0.179727,-0.375516,-0.035571,0.021073,-0.204649,-0.042290,0.284246,-0.603386,-0.236916,0.242916,-0.120130,0.035897,0.234934,-0.425530,-0.156867,-0.226894,0.035996,0.020523,0.363631,0.316932,0.939768,-0.042955,-0.014744,0.161232,0.094086,0.202908,-0.145133,0.051291,-0.018818,-0.280233,-0.142153,-0.163944,-0.195530,0.146020,0.108664,0.085239,0.032026,0.090080,-0.004633,0.094214,0.138141,0.113072,-0.034984,0.052275,-0.362043,0.016928,0.074791,-0.127465,0.097831,0.161213,-0.128509,-0.002594,0.266677,-0.026184,0.019599,0.158717,0.035358,-0.281567,0.076805,0.017662,-0.154349,-0.188389,-0.169692,-0.088704,0.150739,0.118171,0.065292,0.062671,0.037003,-0.102945,0.157531,-0.244585,-0.069040,-0.137926,-0.049489,-0.049596,0.093353,-0.213769,0.178335,0.059487,-0.187817,0.012418,-0.099945,0.044115,0.449267,0.164332,-0.074402,-0.010217,0.162411,-0.065919,0.083823,0.401077,0.111099,0.139922,0.113072,0.427038,0.168524,0.167809,-0.007682,0.103823,-0.226143,0.000965,0.022479,-0.015618,-0.268659,0.135378,0.156310,0.215917,-0.126413,0.082299,-0.114830,-0.198927,-0.083243,0.041206,0.041985,-0.062461,-0.132379,-0.070343,-0.005125,-0.099198,-0.503134,0.020546,-0.101592,0.058325,0.160211,0.047853,0.163095,-0.014017,0.096843,0.212148,0.187408,0.173778,0.234557,-0.111349,0.342067,0.419299,-0.206331,-0.219255,-0.297758,0.219201,-0.513572,0.124485,0.083904,0.231063,0.337455,0.402715,0.131034,-0.038016,0.218126,0.083703,-0.269307,0.001370,0.368539,-0.557916,-0.100567,0.146324,0.123623,-0.023329,-0.103442,0.222240,-0.090493,0.286523,-0.095750,0.155898,-0.214410,0.103590,0.137801,0.182695,0.071328,0.083283,-0.221264,-0.036392,0.089936,0.047782,-0.059733,0.105581,0.285206,0.165899,0.030464,-0.058921,-0.279926,-0.110068,-0.084854,-0.010800,0.154423,-0.227684,0.120100,-0.010246,-0.079529,-0.133286,-0.093210,-0.032040,0.009780,-0.028888,-0.112607,0.177915,0.118432,-0.052681,-0.065294,0.027328,0.015742,0.107292,0.035817,0.036860,-0.117599,0.195630,0.051632,0.038412,0.087495,-0.174631,0.002331,-0.049109,0.461673,0.120608,-0.128575,-0.101926,-0.070378,-0.029973,-0.293968,-0.060701,-0.082707,0.248967,0.016615,-0.032423,-0.045592,-0.269892,-0.016213,0.086183,-0.088972,0.101837,-0.028322,-0.188269,-0.282242,0.044898,-0.608213,0.098032,-0.077159,-0.050208,-0.099598,0.238619,0.165465,0.064150,-0.022666,0.050231,-0.125966,0.187770,-0.415267,-0.110032,0.130968,0.023389,-0.050179,-0.122952,-0.284578,-0.263450,0.297673,-0.340621,-0.450981,-0.036649,-0.153996,-0.452277,0.308997,-0.270867,-0.016137,0.059511,-0.259037,-0.222257,0.333358,-0.294990,-0.203270,-0.295554,-0.254380,0.039622,0.006276,-0.054748,0.055888,-0.000223,-0.409194,0.219601,0.057956,-0.227327,-0.394378,-0.101732,0.029062,-0.021074,-0.165772,0.036995,0.126290,0.206979,0.215876,-0.304680,0.043669,-0.031060,-0.061909,-0.385434,0.078808,0.271824,-0.166887,0.282851,0.041999,0.064115,0.067044,0.156757,0.050476,-0.148199,0.130624,0.143850,0.318873,0.088740,-0.228301,-0.066458,-0.141922,0.323723,0.262438,-0.262838,-0.213023,-0.194262,-0.109862,-0.047932,-0.357978,0.087237,-0.221252,-0.138623,0.004882,-0.010032,0.183038,-0.171503,-0.211975,0.031738,0.062807,0.010615,0.039308,0.148400,0.048365,0.067300,-0.080332,-0.820697,-0.509949,0.033643,0.004511,0.009711,0.089031,-0.131141,0.075299,-0.004867,-0.072171,0.167715,0.124312,0.166992,-0.096450,0.067179,0.343020,0.035068,-0.164788,-0.060366,-0.048047,0.031854,0.022637,0.080102,-0.117303,0.300007,0.009353,0.008379,0.020166,-0.123099,-0.090683,0.091861,-0.232806,-0.158559,0.308347,-0.158612,0.071759,0.015106,-0.157876,0.050566,0.248035,0.026334,-0.193995,-0.363690,-0.368422,-0.046190,0.012860,-0.229564,-0.244902,-0.125883,-0.154140,-0.291863,0.196853,-0.041352,-0.102654,-0.123264,0.013043,0.282873,-0.137089,-0.230598,-0.051515,-0.117175,0.035257,0.015632,0.248806,-0.314903,0.111929,0.187232,0.156708,0.039714,-0.091555,-0.084452,-0.021418,-0.191044,0.138161,-0.109994,0.038189,0.126194,-0.054451,-0.200857,-0.039596,0.071109,-0.116417,0.129764,-0.085441,0.203148,-0.172488,0.117501,-0.157135,0.046438,-0.012572,-0.071471,-0.087769,0.003532,-0.019640,0.286586,0.265680,-0.113585,-0.078956,0.027653,0.063750,-0.072233,-0.021082,0.009668,-0.050088,-0.009514,0.150467,-0.277342,-0.042290,-0.005551,0.133611,0.114221,0.097012,-0.369981,-0.082800,0.081670,-0.404367,0.186405,0.180175,0.089900,-0.052176,0.158020,0.186733,0.187292,-0.090436,0.067555,0.238601,-0.253536,-0.389312,-0.151795,0.124135,-0.095019,-0.030367,-0.240502,0.102177,-0.216725,0.167927,-0.220273,-0.256250,-0.065229,-0.063084,-0.005784,-0.144690,0.067670,-0.159709,0.267555,0.042038,-0.329415,-0.076749,-0.137138,-0.145642,-0.696095,-0.432622,-0.030362,0.037243,0.212038,-0.052882,0.088504,-0.254062,-0.083645,0.001288,0.073988,-0.029039,-0.045186,0.056471,-0.142954,0.016855,0.015511,0.087130,-0.123800,-0.188475,-0.048408,-0.032587,0.051568,0.044484,-0.096195,-0.030801,0.023245,0.038250,0.075513,-0.022589,0.141615,-0.008796,0.177436,-0.230813,-0.157499,-0.182430,0.048545,-0.078888,-0.075919,-0.203995,-0.037360,-0.025296,-0.065013,-0.068770,0.139632,-0.021236,0.020803,0.149144,0.127139,0.190337,0.024090,-0.036257,-0.233071,-0.225059,-0.143059,0.151867,-0.028706,0.145240,-0.030948,-0.086445,-0.256398,-0.048190,-0.006311,-0.184819,-0.005099,-0.033667,-0.430654,-0.365654,-0.024532,-0.128187,0.149731,0.058065,-0.167440,0.072550,0.021768,-0.219970,-0.122441,0.138292,-0.218676,-0.083864,0.055579,0.069110,0.003617,0.042865,-0.208278,0.053263,0.303416,0.060333,0.045656,-0.170783,0.027848,-0.068319,-0.047622,-0.155288,0.106445,-0.083551,-0.312249,-0.273699,-0.098121,0.077476,0.170238,0.040283,0.199786,0.008029,0.146073,-0.081768,-0.186413,-0.061396,0.206278,0.118503,0.089307,-0.158393,0.155456,-0.038856,0.307671,0.456316,-0.150158,0.015015,0.057953,-0.227346,0.235465,-0.065841,0.140491,0.151575,0.119408,-0.268690,0.099588,0.174536,0.181023,0.031531,0.043043,0.158455,-0.099392,-0.154911,0.086531,-0.078550,0.111180,-0.173282,0.271337,0.346981,0.057294,0.175051,0.030574,0.035179,0.301937,-0.172982,0.075772,0.287471,0.321919,-0.057293,-0.003920,0.360197,-0.218965,-0.031390,-0.021751,0.163700,0.108362,0.290095,-0.087645,0.424583,0.175843,0.263818,0.169965,-0.020360,-0.382914,0.185991,0.154322,-0.228361,-0.257354,0.200002,-0.080829,-0.296003,-0.074163,0.224091,0.154126,-0.019502,0.119197,0.071450,-0.161853,0.013427,-0.011572,-0.022524,-0.023419,0.032045,0.060103,-0.003529,0.049719,0.218097,0.129808,-0.252253,0.017629,-0.096776,0.117142,0.127796,0.166333,-0.200968,0.107239,0.226275,0.083719,0.053926,-0.106440,0.332507,-0.036964,-0.025366,0.014140,0.139120,-0.037270,0.113039,-0.106666,-0.090319,-0.725848,-0.248303,-0.247082,-0.143740,-0.055564,-0.100450,-0.036011,0.112300,0.004808,-0.220314,0.040994,0.090994,0.019024,0.008432,-0.085787,0.094559,0.175650,0.121146,-0.185939,-0.177585,-0.120461,-0.090130,-0.113993,-0.026531,-0.095224,0.012391,0.024980,0.160268,0.130949,0.093322,0.011496,-0.049003,-0.236821,0.050594,-0.087521,0.035954,-0.183248,-0.828420,-0.136796,0.380848,-0.001542,0.083298,0.143938,-0.153501,-0.230235,0.487855,-0.789861,0.043047,0.027826,-0.151503,-0.175023,0.283908,-0.012641,-0.421104,-0.131286,0.138621,-0.068650,0.123544,-0.617180,-0.080142,-0.275496,-0.060452,0.048512,0.232943,-0.032903,-0.483507,0.254903,-0.133744,0.238173,-0.104413,-0.082755,-0.357919,-0.330734,-0.515667,-0.493732,0.255588,-0.018732,0.381886,0.358791,-0.062085,-0.224902,0.136707,0.138469,-0.144680,0.236562,-0.184691,0.115800,0.000459,-0.045594,0.015444,-0.080119,0.043895,-0.083598,-0.068529,-0.090818,0.042354,0.160118,0.141835,0.232788,-0.014380,0.066351,0.117157,0.185034,0.005580,-0.009890,0.220765,0.316677,0.058716,-0.260465,0.298715,0.207697,-0.085107,-0.130368,-0.164890,0.326113,-0.429697,0.167518,-0.152142,0.276343,0.160646,0.024492,0.097147,-0.166996,0.117084,-0.087496,-0.100670,-0.175416,-0.332425,-0.262577,-0.085903,0.080730
};

#endif


