//#include "../jedi.h"

#ifndef W8_H_
#define W8_H_


input_t w8[N_LAYER_10 * N_LAYER_12] = {
0.199310,-0.542123,-0.199292,0.044774,0.075648,0.141096,0.176557,-0.027840,-0.633988,-0.122354,0.420423,-0.384951,-0.856857,-0.077008,0.014804,0.238753,-0.460721,-0.581365,0.034031,-0.194497,0.020748,0.252325,0.124536,0.067985,0.021108,0.034254,-0.127573,-0.274624,0.003203,0.006268,-0.333981,0.032314,0.095842,0.084302,-0.151897,0.059890,0.092411,-0.111318,-0.021102,-0.221491,0.123973,-0.011077,-0.028137,-0.205866,-0.041007,0.100042,-0.094802,-0.015699,0.014267,-0.059381,-0.000012,-0.425881,0.256351,0.131263,-0.150689,-0.352510,0.139099,-0.129261,-0.441132,0.097128,0.118687,0.029974,0.153017,-0.406996,-0.009419,0.095612,-0.447568,0.353880,-0.082913,0.036678,0.088815,0.087220,0.122015,0.036860,0.099039,0.204624,-0.156203,-0.061838,0.057161,-0.248705,-0.442765,-0.003391,0.235608,-0.244573,-0.391734,-0.178728,-0.092571,0.044649,0.038543,-0.117215,0.058645,-0.178350,-0.127597,0.127858,0.107714,0.030005,0.451902,0.072462,-0.021575,-0.123424,0.155251,-0.025108,0.073225,0.063373,-0.750919,-0.024189,0.094657,0.008914,-0.284459,-0.035132,0.040362,0.119063,0.122759,-1.334392,0.196157,0.313176,-0.110497,-0.301509,0.001103,0.083870,0.139052,-0.112723,0.132703,0.003673,-0.026458,0.035432,0.245716,-0.458850,-0.025721,0.020506,-0.115926,-0.004198,-0.129832,0.048562,-0.067367,-0.924677,-0.497581,-0.004493,-0.241537,0.098803,-0.058264,0.170474,0.205090,0.000795,0.873958,-0.230274,0.251684,-0.148643,-0.169998,0.071908,-0.191730,-0.005996,-0.026939,-0.157538,-0.180654,0.168049,0.019945,-0.134029,0.271007,0.081476,0.086531,0.144298,-0.070274,0.029167,-0.451593,0.156044,0.017203,0.047103,0.196494,-0.007768,0.110593,-0.020796,-0.001326,-0.192845,-0.267872,-0.048288,0.367205,0.030988,0.030466,-0.155730,0.293155,0.368594,-0.077919,0.038717,0.108576,0.039465,0.063984,-0.048960,0.273326,0.073255,0.046257,-0.625994,-0.136570,-0.355079,-0.230666,0.108990,-0.048435,0.004403,0.023486,0.140480,-0.049556,0.120430,-0.099042,-0.089438,0.078055,-0.097355,-0.207856,-0.011734,0.132107,0.179984,0.038680,-0.225518,-0.157516,-0.287533,-0.041908,-0.090521,-0.021013,0.201519,0.128227,0.254821,-0.065924,0.174478,0.119448,0.086350,0.118020,0.023253,-0.355511,0.095884,0.268562,-0.042814,0.179508,0.197060,0.303515,0.223867,-0.338735,-0.016764,0.023416,-0.064933,-0.037546,0.004416,0.331774,-0.008411,-0.317496,-0.258103,-0.288165,0.149415,0.047411,-0.111472,-0.234570,-0.078740,-0.000782,-0.190827,-0.026090,0.175465,-0.132941,-0.002678,0.153327,0.135674,-0.016379,-0.441415,-0.147850,0.256450,-0.243622,-0.114434,-0.039643,0.003961,0.230464,0.206477,0.042606,-0.006854,-0.000810,0.224851,-0.179301,-0.250758,-0.152398,0.050024,0.021491,-0.310479,0.000400,0.028752,-0.218574,0.238613,-0.272086,0.142714,0.161835,-0.059652,0.106107,-0.097440,-0.057822,0.238126,-0.052281,-0.000853,0.202501,0.139450,-0.103592,0.302141,-0.088056,-0.139750,0.025788,-0.092924,-0.020866,0.020570,0.002471,0.252242,0.094270,0.047953,-0.145483,0.041611,-0.281922,-0.183931,-0.096670,0.201937,0.003789,-0.107974,-0.054081,-0.105384,-0.216558,-0.001031,0.023738,-0.235974,0.018077,0.012173,-0.070422,0.359618,0.085349,-0.113576,0.239593,-0.120650,0.092017,0.321299,-0.044805,0.245040,0.097701,0.089042,-0.109687,0.232822,0.314689,-0.146666,0.491690,-0.187818,-0.094174,-0.059496,-0.049704,-0.104332,-0.078482,-0.092454,-0.085840,0.109651,-0.051952,-0.058421,-0.007200,-0.002933,0.017180,0.181379,-0.149810,-0.071333,0.267825,0.130034,-0.043841,0.073297,-0.071175,-0.345848,0.050650,0.046026,-0.091026,0.071396,-0.126029,0.013216,0.050553,-0.029368,-0.156131,-0.217904,0.189067,-0.239142,0.040316,0.038415,-0.121105,0.109400,-0.056470,-0.124400,0.047701,0.046557,-0.032616,0.006186,-0.158247,0.078518,-0.385842,-0.038473,0.323028,0.021308,0.141689,0.088373,-0.129734,-0.008701,0.256175,0.006041,-0.150202,0.082445,0.105017,-0.022620,0.045989,-0.218078,0.228264,0.318539,0.019282,0.039517,-0.077932,0.055171,0.939219,-0.440087,-0.054495,-0.159351,-0.324874,-0.374169,-0.381032,0.041014,-0.096844,-0.222038,-0.144329,-0.136858,0.008169,-0.103346,0.298645,-0.227907,0.290226,0.424686,-0.023632,-0.145039,-0.295751,0.237810,-0.089054,0.074426,-0.019326,0.089407,-0.056366,-0.045169,-0.128824,0.165286,-0.172528,0.033406,-0.144410,-0.357212,0.093914,-0.102477,-0.031149,-0.088386,-0.027630,0.099558,-0.024516,-0.049521,-0.107202,0.268829,0.074021,0.164780,-0.133833,0.193017,0.493327,0.061161,0.322339,0.064725,0.047430,-0.167842,0.054111,0.268154,-0.110040,0.052626,-0.532410,0.493412,0.060282,0.033681,0.208771,-0.048713,-0.010610,0.336025,-0.405194,-0.290528,0.063028,-0.270100,-0.152616,-0.238350,0.321659,0.050203,-0.030744,-0.349799,-0.502768,-0.151382,-0.087914,-0.098986,-0.094885,-0.034103,-0.099598,-0.080029,-0.170148,0.370995,-0.124763,-0.199919,-0.144509,-0.118746,-0.192065,0.055997,0.124670,0.156098,-0.086152,-0.387867,-0.292689,-0.132952,0.043057,0.060425,0.155372,0.044057,0.093372,0.108946,-0.044210,0.084625,0.194732,-0.089307,-0.077420,0.123805,0.138441,-0.046217,-0.011955,-0.187395,0.213365,0.037607,0.098557,-0.169367,-0.157540,-0.019546,1.209313,-0.348006,0.032300,-0.202266,-0.200799,-0.224256,-0.248242,-0.055711,-0.024727,-0.247419,-0.031463,-0.037848,-0.108433,-0.237271,0.361313,-0.267882,0.363640,0.391360,-0.147287,-0.013758,-0.239862,0.156937,-0.200050,0.311101,0.139086,0.012764,0.083603,-0.088179,-0.138209,0.045542,-0.050220,-0.005246,0.119483,-0.086704,-0.225773,-0.432192,0.052454,-0.114121,-0.134939,-0.066918,-0.161496,0.034661,-0.345110,0.128820,-0.097170,0.041182,0.104081,-0.029525,-0.171742,0.162317,-0.098768,-0.104006,0.421305,-0.113159,0.119104,0.103934,0.016720,0.056603,-0.033133,0.045356,0.019462,-0.166746,0.072170,-0.083549,0.327777,-0.086065,-0.002447,0.218116,-0.198431,-0.257477,0.086180,0.165642,-0.488832,0.063740,-0.148284,0.009460,-0.099175,0.012468,-0.159892,0.130683,0.013536,-0.188371,0.130093,0.039159,-0.177917,-0.065751,-0.040043,0.051218,0.035315,-0.622032,0.209396,0.076021,0.088493,0.070760,-0.005718,0.089271,-0.032396,-0.079778,-0.030520,-0.028974,0.123842,0.054609,0.004784,-0.057370,0.017290,-0.079004,0.031944,0.108487,-0.157412,-0.369492,0.155901,0.016448,-0.319747,-0.270118,-0.032734,0.041833,-0.245992,0.151740,-0.065441,0.030792,0.676182,0.318759,-0.212905,-0.044040,0.131697,0.132621,-0.122393,0.047748,-0.370187,-0.137856,0.225623,-0.114115,-0.684283,-0.524439,0.007239,-0.014478,-0.578671,-0.033372,0.331156,0.181715,-0.230463,0.058774,0.036764,0.176126,-0.233544,-0.205341,-0.061206,-0.045385,-0.060340,-0.218470,0.227256,0.090551,-0.234579,-0.049733,0.198068,0.023584,-0.120119,0.157309,-0.183119,0.045526,0.098348,-0.086792,0.223773,0.148556,0.160048,-0.045780,-0.051609,-0.010565,0.285909,-0.111302,0.028438,0.136529,-0.246510,-0.253717,-0.197052,-0.182222,0.138804,-0.266091,-0.047297,-0.209933,0.087681,0.025535,-0.257336,-0.001992,-0.100572,0.116042,-0.032146,-0.126096,-0.022838,0.260814,0.037350,-0.052901,-0.066483,0.036784,0.014826,-0.141237,-0.045753,-0.268771,0.042627,0.113629,-0.058037,-0.068066,0.115385,-0.099226,0.041732,-0.086508,-0.483202,0.109224,-0.011474,-0.015043,0.118200,0.179348,0.284862,0.081115,-0.043803,-0.453808,-0.039600,0.127607,-0.265620,-0.312092,0.001309,-0.106648,-0.123641,-0.503482,0.124560,0.029726,-0.015999,0.248174,-0.005691,0.056106,-0.001308,-0.514741,-0.090511,-0.114072,0.029073,-0.086831,0.161471,-0.097645,-0.070001,-0.004306,-0.027674,0.102931,-0.032056,0.181244,-0.163965,0.061141,-0.233055,0.040433,-0.562955,0.150939,0.050398,-0.105559,-0.212811,-0.123896,-0.012084,0.097667,0.007602,0.138885,0.095322,-0.039028,0.192132,0.046554,-0.195507,-0.134142,-0.688382,-0.091490,-0.038690,-0.029784,0.051874,0.109090,0.040259,0.282144,-0.045066,-0.261466,-0.008606,-0.006737,-0.009798,0.153402,-0.002058,0.111101,-0.047460,0.056244,-0.119405,-0.279581,0.085095,-0.029966,0.146589,-0.165337,0.200359,-0.048612,-0.270960,0.111564,-0.091156,0.098970,-0.091261,-0.013511,-0.184651,-0.200446,-0.013445,-0.142119,-0.097844,0.270371,0.126444,-0.100685,0.108795,-0.133994,0.007793,-0.102877,-0.068185,0.053140,-0.305272,0.281196,0.031324,0.093596,0.056846,0.124199,-0.260634,-0.096131,0.045107,-0.156834,0.064878,-0.091797,-0.185063,0.036191,0.155973,-0.175586,0.043899,-0.090440,-0.042659,0.271748,-0.168538,-0.099573,0.141685,0.053088,-0.026970,0.058740,0.139926,0.038774,0.064273,-0.026214,-0.034270,-0.065062,-0.054251,-0.057557,-0.096583,0.052862,0.119741,-0.155851,-0.150410,0.018802,-0.169807,-0.074628,0.167865,-0.323185,0.211613,0.031417,-0.095055,-0.118900,0.086466,-0.255220,0.306044,0.104011,0.019587,-0.192282,0.030888,0.218767,-0.164393,0.110505,-0.415555,0.130710,0.090167,-0.073540,-0.132907,-0.344480,0.090915,0.055072,0.000552,-0.702028,0.115988,0.008872,-0.102193,0.125185,0.055277,-0.094827,-0.157033,0.003583,0.001303,0.045929,-0.000568,-0.047377,0.077880,-0.188994,0.055014,0.010099,-0.336831,0.276148,0.288407,0.314026,0.157486,-0.028321,0.397467,0.403440,-0.234637,0.313750,-0.065642,0.055095,0.039191,0.121544,0.051959,-0.204105,-0.184311,-0.260112,0.043303,-0.046376,0.003373,-0.065517,-0.025828,-0.200475,0.013196,0.161838,-0.027277,0.107705,0.060171,-0.143505,-0.108179,-0.101966,0.019139,-0.156243,0.206113,-0.070547,-0.187810,-0.047870,-0.062678,-0.114605,0.009929,-0.016791,-0.217628,-0.254523,0.021582,-0.074071,0.081037,0.003017,-0.053878,-0.186929,-0.021331,-0.082758,-0.434039,0.026418,0.057204,-0.145580,-0.002258,0.176247,0.039675,-0.008182,-0.051531,-0.179332,0.016244,-0.111812,0.020401,-0.026529,0.009551,-0.082654,-0.149389,0.037140,-0.174223,0.081389,-0.222236,0.019358,0.016660,-0.147311,-0.005269,-0.146108,-0.022979,0.062065,-0.010302,-0.118050,-0.022707,-0.040532,0.194992,-0.197865,0.892079,-0.348769,0.111547,-0.125745,0.005003,0.025041,-0.039183,-0.250072,-0.338894,0.095104,-0.010327,-0.001415,0.108455,-0.149971,-0.108952,-0.026203,0.724452,0.005402,0.021653,-0.086186,-0.115816,-0.581721,-0.047636,0.021662,0.194569,-0.016551,-0.088030,-0.041589,-0.011626,0.046174,0.110995,-0.295562,0.162078,0.040283,-0.133053,0.066170,0.112888,0.001151,-0.165942,-0.090721,-0.082688,-0.028411,-0.139209,0.067778,-0.126586,-0.039892,0.059093,0.132274,0.095245,0.086839,0.219886,-0.182873,-0.067950,-0.037928,-0.045802,-0.196250,-0.037444,0.022306,-0.038493,0.035430,-0.116633,-0.261742,-0.153358,-0.105592,-0.001697,-0.052618,-0.145607,-0.041720,-0.044521,0.012551,0.024039,-0.081628,0.181635,0.383143,0.153089,-0.056788,-0.175407,0.108825,-0.000715,0.077526,0.175116,-0.319041,-0.239162,0.088000,0.124881,-0.388339,0.050032,0.018472,0.204314,0.150062,-0.197110,-0.264308,-0.120121,0.002235,0.106643,-0.131170,0.201089,-0.174598,-0.434838,0.103746,0.060809,-0.030133,-0.021967,-0.067558,0.035356,-0.293872,0.134097,-0.126808,-0.162860,-0.117763,0.011571,0.191248,-0.199691,0.116399,0.032992,0.001485,-0.000298,0.102763,-0.016527,0.079714,1.171701,-0.583457,0.139096,-0.319235,-0.392708,-0.408715,-0.259209,0.224013,-0.128354,-0.380724,-0.236148,0.046138,-0.001237,-0.217210,0.206156,-0.152315,0.219582,0.308757,-0.057762,-0.010120,-0.266660,0.157493,-0.188192,0.137511

};



#endif


