//#include "../jedi.h"

#ifndef W1_H_
#define W1_H_

// numpy array shape [P, 30];
;
/*
input_t w1_1[2*P * N_LAYER_2] = {
        1, 1, 1, 1, 1, 1,1, 1, 1,1, 1, 1,1, 1, 1,
        1, 1, 1, 1, 1, 1,1, 1, 1,1, 1, 1,1, 1, 1,
        1, 1, 1, 1, 1, 1,1, 1, 1,1, 1, 1,1, 1, 1,
        1, 1, 1, 1, 1, 1,1, 1, 1,1, 1, 1,1, 1, 1,
        1, 1, 1, 1, 1, 1,1, 1, 1,1, 1, 1,1, 1, 1,
        1, 1, 1, 1, 1, 1,1, 1, 1,1, 1, 1,1, 1, 1,
        1, 1, 1, 1, 1, 1,1, 1, 1,1, 1, 1,1, 1, 1,
        1, 1, 1, 1, 1, 1,1, 1, 1,1, 1, 1,1, 1, 1
};*/

input_t w1[2*P * N_LAYER_2] = {
-0.045569,-0.016096,-0.010509,-0.007665,0.011820,0.099171,-0.008637,-0.007440,0.003457,0.013789,-0.016656,0.039535,0.064914,-0.011228,-0.000184,-0.024166,0.002631,0.040129,-0.078482,-0.000385,0.039040,-0.032034,0.038386,-0.023610,0.033894,-0.082793,-0.000882,0.041162,-0.017302,-0.028838,0.015011,-0.067396,-0.021601,-0.042192,0.006490,-0.069744,0.033653,0.038956,-0.034703,-0.043583,0.012085,0.039786,0.014997,-0.040914,0.085116,-0.018971,-0.022340,0.073182,0.013224,0.015548,-0.031490,0.052929,-0.002423,-0.069968,0.020299,0.045029,-0.028599,-0.103612,0.010076,0.016628,0.020944,0.089425,0.002687,0.012757,0.026482,-0.148174,-0.011001,-0.035206,-0.040325,-0.011807,0.098923,-0.014914,0.019903,0.014040,0.054060,0.041796,-0.007384,-0.029338,-0.072367,0.006052,-0.018048,-0.069685,-0.012840,0.008961,-0.009021,0.097702,0.080216,0.063128,-0.027923,0.003562,-0.026921,0.050728,-0.029770,0.088933,-0.079294,0.065395,0.062312,-0.061488,-0.028169,0.006402,0.038002,0.033758,0.019467,-0.011001,-0.001548,0.045756,0.030223,0.055925,-0.076022,0.063047,0.069516,-0.021557,0.046712,-0.089261,0.014353,-0.004012,-0.082640,0.002587,0.010032,0.000476,-0.081572,-0.089140,0.032942,0.064745,-0.032750,-0.113107,-0.001515,-0.162789,-0.081310,-0.008138,0.021771,-0.032558,-0.162099,0.063285,-0.002219,0.078747,0.026834,0.011776,0.014753,-0.027553,-0.001218,0.089162,0.052733,0.015543,-0.077490,-0.031411,-0.013564,-0.100110,0.033660,-0.015674,0.082083,-0.109974,0.124910,-0.020011,-0.005820,0.127935,-0.085689,0.048585,-0.090036,-0.099707,0.139890,-0.023433,-0.135297,0.083591,0.010688,-0.139716,0.148218,-0.008118,0.077953,-0.001426,-0.061223,0.114346,-0.091162,0.086390,-0.005436,-0.154971,0.002513,-0.184555,0.116445,0.130987,-0.009950,-0.121535,-0.159667,-0.080698,-0.016474,0.168412,0.030702,0.131525,-0.021267,-0.004723,0.021361,-0.130478,-0.021857,0.014963,0.101895,0.053778,-0.030841,-0.085130,0.008727,0.026422,-0.166467,0.180887,-0.034545,-0.005660,-0.225280,-0.117204,-0.211073,-0.173374,0.242182,0.000210,0.136173,0.193503,0.429496,-0.134443,0.149305,0.047096,-0.058120,-0.095068,-0.029762,0.069785,-0.231322,-0.112093,-0.062638,-0.018972,0.195655,-0.081575,-0.050806,0.079588,-0.046158,-0.157667,-0.195542,0.313954,-0.028175,0.220343,-0.046644,-0.172495,0.140816,-0.051379,0.044957,-0.093749,0.204912,0.047148,0.128349,-0.075379,-0.122267,-0.104618,0.045026,-0.051317,0.118045,-0.010443,0.145300,0.045788,-0.098669,-0.186734,0.045149,0.137605,0.049291,0.106888,-0.011952,0.068592,-0.083821,-0.074214,-0.108445,0.016113,-0.173916,-0.013135,-0.098595,-0.089341,0.046910,0.022596,-0.050382,0.105489,-0.012557,-0.006227,-0.034333,-0.015841,0.012473,-0.002634,0.137285,-0.034766,0.000940,-0.008503,-0.279092,-0.165980,0.070142,-0.027922,0.072691,0.016758,0.073868,-0.045835,0.057576,-0.044785,-0.053814,-0.202727,0.098449,-0.127445,-0.004311,-0.119742,0.034983,-0.030421,-0.067076,0.219654,0.177399,-0.116697,-0.144778,-0.040128,0.003293,0.050132,0.283912,0.060860,0.109709,-0.102586,0.370133,-0.022713,-0.097107,0.085807,-0.031141,0.037492,-0.022515,-0.100703,0.115605,0.045131,-0.260975,0.057363,0.148553,-0.170968,-0.191360,-0.099913,-0.057655,-0.119931,0.026806,0.286069,-0.059080,0.086686,0.140079,-0.025817,-0.146622,0.155378,-0.042648,-0.095694,0.145767,0.255445,0.180124,-0.009384,-0.154919,-0.047147,-0.150253,-0.026762,-0.066293,-0.046758,0.066661,0.028758,-0.115745,0.001120,-0.069643,-0.105755,0.012940,-0.056383,-0.281244,0.027051,0.064637,0.147495,0.396897,0.029447,0.013031,0.376205,0.197836,0.173752,-0.099998,0.232175,-0.113356,0.117414,0.008259,-0.017730,0.210676,0.232471,0.067222,-0.225048,-0.014668,0.036991,0.073071,0.074806,-0.066940,0.031898,-0.025309,0.081484,-0.025274,0.075600,-0.157322,0.081961,0.028377,-0.304727,-0.140707,0.000720,-0.024587,-0.004984,0.014763,-0.230812,0.120830,-0.182540,-0.078355,0.046014,0.159042,-0.276062,-0.129271,0.217698,-0.716796,0.244264,0.370054,0.146230,-0.285229,0.255601,0.354194,-0.333675,-0.096032,0.328654,-0.142884,0.458389,-0.009086,-0.032853,0.047042,0.210254,-0.125690,-0.217013,-0.432347,-0.170521,0.446275,-0.225087,0.272403,0.129016,-0.592981,-0.700332,-0.112973,0.870983,-0.094883,0.242875,-0.337147,0.132463,-0.138248,-0.089389,-0.015366,-0.033790,0.264873,0.151635,-0.101724,0.673586,0.771800,0.354824,0.074749,-0.249663,-0.058841,0.048473,-0.035945,-0.138936,-0.804249,-0.061811,1.052806,0.002460,0.093074,0.118743,0.400429,-0.455772,0.093932,0.246437,-0.305798,0.197873,0.579624,0.175462,-0.064282,0.048269,0.056838,-0.117096,0.029566,0.054034,0.239312,0.072442,0.834570,0.040797,-0.245988,0.112998,-0.094142,-0.192844,0.013153,-0.119001,0.199111,-0.108398,0.110259,0.036382,0.076833,-0.011166,-0.112437,0.130733,-0.105187,-0.197998,0.021644,0.104988,0.061400,0.852695,-0.166456,-0.021344,-0.047526,-0.061052,-0.102617,-0.050589,-0.029921,0.037230,0.032017,-0.009399,-0.041039,0.060342,-0.150466,0.148587,-0.068112,-0.084703,-0.014294,0.093401,0.114664,-0.001946,0.002078,0.013908,-0.033692,-0.067439,0.052251,-0.098463,-0.199869,0.197788,0.080042,0.235105,-0.035172,0.126314,-0.125302,-0.120263,0.033519,0.013516,0.084712,-0.018921,-0.115464,0.097189,-0.013693,-0.013543,0.011019,0.003493,-0.080315,-0.096374,0.131054,-0.115884,-0.119823,0.044695,0.014616,0.156518,-0.097289,0.048045,0.044276,-0.224313,-0.120475,0.317308,0.456440,0.006660,-0.044826,-0.108806,0.052475,-0.148092,-0.183286,-0.077102,0.003502,0.001953,0.081039,0.265619,-0.043620,-0.083608,0.140812,-0.035416,-0.110466,-0.238485,0.045393,-0.140579,0.069712,-0.110950,-0.168885,-0.022427,-0.381577,0.270767,-0.006514,-0.235640,0.096482,0.001447,-0.061269,0.032775,0.266890,0.163791,-0.082077,-0.038666,-0.020867,-0.147437,-0.046115,0.064097,0.316179,0.371946,-0.022225,0.076458,2.669453,-0.368742,3.582735,-0.984927,-0.639131,1.910268,-0.346805,2.224641,-0.319509,-0.849020,-2.868805,0.472272,-0.254137,1.892631,0.003405,0.220408,-2.877379,-1.134234,-1.887786,2.003952,0.305947,2.008008,0.979986,2.589079,0.109985,1.704395,-2.243384,0.519080,-2.741339,3.906633,1.547179,-0.203759,-0.666707,0.719745,1.878677,-2.481088,-1.678087,2.031846,-1.530485,-0.825860,-0.883238,-0.443371,-0.340266,-1.231126,-2.467066,2.420685,-0.322531,0.226328,-1.546885,0.122194,-3.844818,-1.341472,-1.531084,-0.485838,2.516750,-3.319752,0.586637,-2.860235,-0.872687,-0.278172,3.097054,0.533789,0.276983,-3.093166,0.703253,0.946896,2.337902,0.760861,3.259143,-2.368842,-0.613092,-3.446831,1.147772,-3.352617,0.505325,-1.114189,2.232553,0.689325,3.434393,-3.877927,-2.580068,-0.076231,0.434468,-2.144952,-2.504432,3.724211,2.707254,-3.412381,2.651332,-0.470615,-0.556659,0.234406,1.559934,2.174611,3.101533,-2.383075,0.287736,0.606055,2.889911,0.027518,-0.141263,-0.154110,-0.036863,0.017010,-0.115260,-0.136056,-0.048662,-0.063807,-0.041674,-0.082397,-0.053962,0.245751,0.362462,0.053465,-0.078347,0.166253,0.176195,0.058728,0.022644,0.260879,-0.072716,0.106710,0.028753,-0.022920,-0.027465,0.103085,-0.233994,-0.225044,0.228900,-0.141073,-0.057359,0.155328,0.058819,0.045578,0.121478,0.014270,0.119870,0.114367,-0.107823,0.009745,0.005880,-0.201507,-0.219513,-0.165858,-0.205078,-0.159528,-0.116573,-0.193650,0.106810,-0.064183,-0.082944,-0.095508,0.139214,-0.011229,-0.959867,0.014015,1.110435,-0.048130,0.146879,-0.059561,0.221107,-0.307977,-0.188684,0.205940,-0.128379,0.053976,0.591354,0.336861,0.083391,-0.094207,-0.093164,-0.186293,0.168537,-0.075681,0.088998,0.223207,1.000211,0.151793,-0.191835,0.040634,-0.092846,-0.202686,0.011502,-0.098697,0.127791,-0.125004,0.007187,-0.167572,-0.058186,-0.093320,-0.056360,0.222859,-0.049144,-0.062929,0.049636,0.259508,0.320465,0.933484,-0.276291,-0.051428,0.022514,-0.001600,0.119924,0.018212,-0.024970,-0.020852,-0.038244,0.042062,-0.013898,0.208894,0.062886,-0.532758,-0.029980,-0.018190,-0.002813,0.123696,-0.051061,-0.152391,0.025577,-0.002927,-0.115617,-0.100491,-0.091852,0.043824,-0.012611,0.464388,-0.035344,-0.104457,-0.092574,0.024836,-0.012614,0.020811,-0.017110,-0.006767,0.099202,0.093422,-0.056920,-0.016266,0.017641,0.000347,0.000840,0.019084,0.015085,-0.141162,-0.021854,0.093198,-0.024059,0.030273,-0.054728,-0.028434,0.000461,-0.052629,0.049666,0.062710,-0.054412,-0.108371,-0.052521,0.027085,-0.008150,0.144417,0.004451,0.031309,0.021859,-0.037367,-0.018968,-0.001547,0.052761,0.102770,0.042805,0.033751,-0.008649,0.025541,-0.088743,-0.035425,-0.155778,-0.249304,0.008609,0.149916,0.028485,-0.006426,-0.055089,0.012428,0.011324,0.011018,-0.037515,-0.119529,-0.009281,-0.011886,0.084641,-0.002466,0.020079,-0.027207,0.015883,-0.006556,0.007823,-0.039494,-0.098366,0.004526,0.004756,-0.056944,-0.053526,0.038482,-0.056190,-0.004143,0.009273,0.039208,-0.033342,-0.015393,-0.045550,-0.081184,-0.144726,-0.093603,0.097397,0.032657,-0.010066,-0.030913,0.019218,0.052560,0.043498,0.003793,0.003074,0.029606,0.004583,-0.087117,0.042127,0.228737,-0.001359,0.098441,-0.013462,0.002068,-0.072317,0.150656,-0.002160,0.003115,0.015083,-0.121019,0.013823,0.022307,0.081540,-0.001832,0.024032,0.010218,0.063165,0.077575,0.125837,-0.027255,-0.176925,-0.080774,-0.044914,0.002604,0.109299,0.107645,-0.273509,0.037290,0.038458,-0.002339,-0.034850,0.083454,-0.056403,-0.167275,-0.099655,-0.312455,0.000341,0.005659,0.026781,0.058671,-0.187447,-0.072229,0.119071,-0.020880,-0.187479,-0.007845,0.033668,0.031711,-0.157308,-0.399848,-0.202231,-0.139231,0.003493,-0.111998,-0.097035,-0.016683,-0.033103,0.093769,0.052834,-0.102824,0.057355,-0.111777,-0.143760,-0.095971,-0.174731,-0.031511,0.123031,-0.051330,-0.082936,-0.006140,-0.120441,-0.004287,0.003087,-0.022117,0.406147,0.455421,0.021239,-0.339610,-0.497699,-0.002201,0.147589,0.033596,0.226846,-0.135932,-0.077468,-0.060128,0.289652,-0.277968,0.023566,-0.106569,-0.054268,-0.007862,-0.396690,-0.092372,-0.035302,-0.014360,-0.321914,0.172033,0.173066,-0.281630,-0.141087,-0.281590,-0.189070,0.109078,-0.130981,0.067258,0.064840,-0.233825,-0.328006,-0.076948,-0.356368,0.140362,-0.443708,-0.373037,0.225233,-0.140836,0.521050,0.087018,-0.223300,0.122533,-0.237128,0.048913,-0.431409,-0.571782,-0.172055,-0.049884,-0.021617,0.219571,-0.139244,0.113266,-0.139562,-0.024290,0.057228,-0.298832,-0.138041,-0.268583,-0.013045,0.162741,0.140909,-0.120221,-0.060476,-0.177702,0.176930,0.051994,-0.112825,0.044425,0.013952,-0.054050,-0.064728,-0.468200,-0.115169,-0.009846,-0.083671,-0.074876,0.057168,-0.191287,0.103236,0.123359,0.147025,0.051685,0.077117,0.159178,0.051327,0.168414,0.018535,0.006938,-0.100986,-0.119207,-0.002429,-0.157749,-0.290018,-0.141813,0.162636,0.087842,0.108645,0.524469,0.259950,-0.218396,-0.349262,-0.198853,0.086956,0.235853,0.453739,-0.042816,-0.030458,-0.056523,0.248225,0.020218,-0.036202,-0.225634,0.052022,0.140524,-0.418742,0.115745,0.009540,-0.016072,-0.411325,0.078961,0.071966,-0.409760,-0.110297,-0.143115,-0.016548,0.029024,-0.105266,0.297786,0.091216,-0.189656,-0.520273,-0.282778,-0.285625,0.088807,-0.328385,-0.523858,0.295837,0.056212,0.285223,0.081876,-0.234187,0.069933,-0.187001,0.168798,-0.338975,-0.266490,-0.050407,-0.155025,0.191652,0.050601,-0.032793,-0.233097,-0.081052,-0.169712,-0.270727,-0.075881,0.002272,-0.123293,0.181881,0.162940,-0.092121,0.111919,0.154714,-0.118185,-0.053472,0.174521,-0.406205,0.072428,-0.072572,0.041320,-0.073636,0.030506,0.140829,0.343952,0.038835,-0.096348,0.456717,0.292396,-0.056318,0.007668,0.011404,0.168124,-0.138616,0.022230,-0.183073,0.105837,0.069964,0.028439,-0.278240,-0.135542,0.026272,-0.270366,-0.429902,-0.139015,-0.107305,0.085138,0.036273,0.268134,-0.172302,-0.067982,-0.289596,-0.105447,-0.750310,-0.042599,0.164905,0.246870,-0.074694,-0.517268,-0.114538,0.223905,0.292312,-0.445772,0.088614,0.262790,-0.183110,-0.045620,-0.846898,-0.160969,0.035671,0.189451,-0.340457,-0.413381,-0.264758,-0.046089,0.107333,-0.095156,1.279889,-0.364554,0.065711,0.245162,0.074861,-0.129901,0.133066,0.282526,0.454015,-0.187016,0.313422,-0.035458,0.265698,0.144843,0.396589,0.563025,0.218252,0.723443,-0.128905,-0.035703,0.100066,-0.123882,0.384464,-0.204510,0.367604,0.235532,-0.313151,-0.029059,-0.170738,0.099477,0.179793,0.109822,-0.008884,-0.253688,-0.159755,-0.226343,0.408254,-0.224247,0.017299,0.009341,0.447784,-0.085910,-0.166836,0.001589,-0.114946,0.188791,0.034796,-0.275118,-0.026705,-0.042582,0.214890,0.313098,0.023999,0.057484,-0.012761,-0.051202,-0.036858,-0.030851,0.085665,-0.094414,-0.237534,0.250216,-0.002524,0.263859,-0.018387,-0.143085,-0.215636,-0.297092,0.087775,0.279069,-0.016887,0.068831,-0.003256,-0.017028,0.087121,-0.062854,-0.064610,0.026790,-0.094680,0.338141,-0.059281,-0.054108,0.044004,0.046999,-0.035522,-0.062529,0.157067,0.053320,0.027692,-0.084410,0.075298,0.109083,0.037406,-0.163446,-0.046371,-0.036601,0.071781,0.228136,-0.065961,0.036388,0.131883,0.072175,0.015274,-0.057054,-0.226955,-0.044225,-0.087840,0.040703,0.134652,0.072591,-0.065507,-0.147606,0.063392,-0.168737,0.037315,0.005666,0.147517,-0.099642,0.085563,0.030620,-0.101984,0.085712,0.090238,0.297159,0.400177,0.193296,-0.082594,0.110307,0.218388,0.319912,0.096818,0.175169,-0.050824,0.083116,-0.097662,-0.121922,-0.370259,-0.007469,-0.066472,0.114818,-0.154861,0.078554,-0.304309,0.336034,-0.076836,0.563639,0.118652,-0.348442,0.175861,-0.168611,-0.091159,0.257824,-0.162022,0.100048,0.188835,0.184004,-0.099244,0.166719,-0.337368,0.027827,-0.222680,-0.206515,0.171162,0.329039,0.139112,-0.103790,0.213181,-0.282505,0.202384,0.269632,-0.415900,-1.801466,-0.652311,0.634837,0.904461,-0.026102,-0.436981,-0.220329,-0.436170,1.530993,0.049258,-0.205292,-0.522078,-0.092563,0.299844,0.867592,-0.277975,-0.023743,0.723230,-0.782089,-0.144751,-0.330185,0.428527,-0.312245,-0.803208,0.272123,0.041234,0.503721,0.244708,-0.138509,-0.576217,-0.227901,-0.928602,0.835368,0.008228,0.480764,0.726919,-0.231656,0.558894,-0.166635,-0.243709,-0.755135,-0.124388,0.249832,0.529530,-0.279224,0.075502,-0.132406,0.678698,-0.314454,-1.148933,-1.052598,0.464369,0.669510,0.143962,-0.683296,-0.180257,-0.832585,-0.553374,0.873978,0.188550,-0.524241,-0.156703,-0.511082,0.236015,0.955537,0.020265,-0.092079,1.091077,-0.476201,0.220183,-1.227714,0.841885,-0.991416,0.148548,-0.167724,-0.663341,-0.073549,0.796275,0.055393,-0.597942,-0.048992,-0.254764,-2.073303,-1.064651,0.908568,0.919461,-1.124387,0.627560,-0.258330,0.769174,-0.497113,0.601563,0.935425,1.024721,-0.564811,0.151815,0.279775,1.244608,-0.493221,0.088708,0.095452,0.371024,0.017439,-0.028520,0.017831,-0.036349,0.103423,-0.258262,0.114398,-0.205711,-0.046864,0.116691,0.113153,0.127326,0.100021,-0.050109,-0.402641,-0.050080,0.115106,-0.393458,-0.156683,-0.047169,0.021900,-0.190950,0.299539,0.011568,0.239911,0.049525,-0.010074,0.460871,0.257988,0.144758,-0.093043,-0.004881,-0.088323,-0.053021,-0.135535,-0.035429,-0.239161,-0.035561,-0.083578,0.076634,0.130939,0.000581,-0.259868,-0.281932,-0.109486,-0.041457,0.005821,-0.106681,-0.145000,0.163175,-0.259086,0.162565,0.208177,-0.084467,0.201591,0.064867,-0.043829,0.090802,0.182588,-0.136742,-0.166975,0.046994,-0.436152,0.291427,-0.191161,-0.021804,0.021949,0.393932,0.033263,-0.290192,0.193760,-0.246858,0.316567,-0.004090,-0.386438,0.037062,0.166701,0.037999,0.358300,0.130759,0.043145,-0.023758,-0.062444,0.121071,-0.084701,0.084303,-0.112380,-0.222238,0.021036,0.087205,0.034249,0.111868,0.102731,-0.330894,-0.630663,-0.028181,0.186238
};

#endif



