//#include "../jedi.h"

#ifndef W2_H_
#define W2_H_

// numpy array shape [30, 15]
/*
input_t w2_1[N_LAYER_2 * N_LAYER_4] = {
        1, 1, 1, 1, 1, 1,1, 1, 1,1, 1, 1,1, 1, 1,
        1, 1, 1, 1, 1, 1,1, 1, 1,1, 1, 1,1, 1, 1,
        1, 1, 1, 1, 1, 1,1, 1, 1,1, 1, 1,1, 1, 1,
        1, 1, 1, 1, 1, 1,1, 1, 1,1, 1, 1,1, 1, 1,
        1, 1, 1, 1, 1, 1,1, 1, 1,1, 1, 1,1, 1, 1,
        1, 1, 1, 1, 1, 1,1, 1, 1,1, 1, 1,1, 1, 1,
        1, 1, 1, 1, 1, 1,1, 1, 1,1, 1, 1,1, 1, 1,
        1, 1, 1, 1, 1, 1,1, 1, 1,1, 1, 1,1, 1, 1,
        1, 1, 1, 1, 1, 1,1, 1, 1,1, 1, 1,1, 1, 1,
        1, 1, 1, 1, 1, 1,1, 1, 1,1, 1, 1,1, 1, 1,
        1, 1, 1, 1, 1, 1,1, 1, 1,1, 1, 1,1, 1, 1,
        1, 1, 1, 1, 1, 1,1, 1, 1,1, 1, 1,1, 1, 1,
        1, 1, 1, 1, 1, 1,1, 1, 1,1, 1, 1,1, 1, 1,
        1, 1, 1, 1, 1, 1,1, 1, 1,1, 1, 1,1, 1, 1,
        1, 1, 1, 1, 1, 1,1, 1, 1,1, 1, 1,1, 1, 1,
        1, 1, 1, 1, 1, 1,1, 1, 1,1, 1, 1,1, 1, 1,
        1, 1, 1, 1, 1, 1,1, 1, 1,1, 1, 1,1, 1, 1,
        1, 1, 1, 1, 1, 1,1, 1, 1,1, 1, 1,1, 1, 1,
        1, 1, 1, 1, 1, 1,1, 1, 1,1, 1, 1,1, 1, 1,
        1, 1, 1, 1, 1, 1,1, 1, 1,1, 1, 1,1, 1, 1,
        1, 1, 1, 1, 1, 1,1, 1, 1,1, 1, 1,1, 1, 1,
        1, 1, 1, 1, 1, 1,1, 1, 1,1, 1, 1,1, 1, 1,
        1, 1, 1, 1, 1, 1,1, 1, 1,1, 1, 1,1, 1, 1,
        1, 1, 1, 1, 1, 1,1, 1, 1,1, 1, 1,1, 1, 1,
        1, 1, 1, 1, 1, 1,1, 1, 1,1, 1, 1,1, 1, 1,
        1, 1, 1, 1, 1, 1,1, 1, 1,1, 1, 1,1, 1, 1,
        1, 1, 1, 1, 1, 1,1, 1, 1,1, 1, 1,1, 1, 1,
        1, 1, 1, 1, 1, 1,1, 1, 1,1, 1, 1,1, 1, 1,
        1, 1, 1, 1, 1, 1,1, 1, 1,1, 1, 1,1, 1, 1,
        1, 1, 1, 1, 1, 1,1, 1, 1,1, 1, 1,1, 1, 1
}; */

input_t w2[N_LAYER_2 * N_LAYER_4] = {
-0.143639,-0.169842,0.089076,-0.004662,0.083710,0.065240,0.099510,-0.041454,0.038220,-0.149016,-0.082886,-0.000139,0.125528,0.042820,0.068137,0.011501,0.113138,0.044220,-0.324703,-0.010765,-0.002755,-0.013387,-0.167024,0.022045,-0.061283,-0.025751,0.040447,0.012591,0.064431,-0.019347,0.185404,0.002968,-0.130269,0.003605,-0.020977,-0.093480,0.066441,0.019625,0.085073,0.011169,0.146552,0.037719,-0.013312,-0.030132,-0.112142,-0.262103,-0.105141,-0.025744,0.303613,0.163328,-0.024173,-0.151801,-0.039461,-0.098945,0.072359,0.031659,-0.058532,-0.074693,0.283684,-0.183382,0.402798,-0.006017,-0.046702,-0.201381,0.024137,0.392772,0.008994,0.137023,0.101490,-0.101067,0.094441,-0.011684,-0.059039,-0.019050,-0.032131,0.050525,-0.074928,0.064902,-0.056240,0.021618,0.081693,-0.190885,-0.082798,-0.035633,-0.384522,-0.124112,-0.186479,0.228373,0.165730,0.097790,0.031455,-0.299277,0.020212,-0.089016,0.114202,-0.153726,-0.104036,0.088470,0.014681,0.232631,-0.045928,-0.202403,-0.101622,-0.024611,-0.078599,-0.073613,-0.038408,-0.005870,0.103444,-0.100163,0.211372,0.086062,-0.087173,-0.392346,0.023035,-0.046818,-0.078971,-0.455153,0.108497,-0.146158,0.178513,0.158988,0.031707,-0.155731,0.052757,-0.062546,-0.509634,-0.085671,-0.150615,0.095107,-0.095360,-0.030845,0.045644,-0.011132,-0.020631,-0.299440,-0.041739,-0.072953,-0.174920,0.100105,-0.126444,-0.024027,-0.275157,-0.141338,0.011509,-0.092515,-0.003115,-0.025472,-0.116668,0.019628,-0.060301,0.046902,0.158891,0.175224,-0.074492,-0.017345,0.153378,-0.025258,-0.014174,0.241650,0.131164,0.034315,-0.113177,-0.117166,0.062843,-0.356330,0.007953,0.078656,0.092045,-0.005810,0.256644,0.114666,0.035038,-0.288435,-0.336260,0.053173,-0.077710,-0.054313,-0.294926,-0.027983,0.058008,-0.009067,-0.105226,0.125609,-0.103333,-0.127373,-0.072612,-0.039636,-0.194660,0.072155,-0.030586,0.116777,-0.141624,-0.269099,-0.119786,0.029803,0.010191,-0.077202,0.119461,-0.031645,-0.024486,-0.238486,0.152714,-0.083955,-0.061070,0.034404,-0.408627,-0.107350,0.012130,-0.204710,-0.152650,0.148778,-0.287109,0.002156,0.073092,0.076546,-0.143297,-0.070084,-0.071531,0.050023,-0.099233,-0.051769,0.005550,0.158096,-0.000977,0.131988,0.133306,-0.405712,-0.155257,-0.015564,-0.124376,-0.156775,0.442357,-0.294230,-0.107261,0.083549,-0.135225,0.112377,-0.111678,-0.062594,-0.149644,-0.176965,-0.118437,-0.074333,-0.177953,-0.063176,-0.140288,-0.030767,0.184865,-0.007763,0.042374,0.022502,0.187874,0.144847,-0.096735,-0.045458,0.055641,-0.034469,-0.129374,0.069891,0.032993,0.025628,0.091359,-0.069483,-0.114607,0.072096,-0.038606,-0.007050,0.053054,-0.171794,-0.067054,0.011995,0.043226,-0.014570,-0.000508,-0.025609,-0.127143,-0.224198,-0.052764,-0.063280,-0.155753,0.039424,-0.489188,0.194129,0.118853,0.030410,0.027097,0.087090,-0.100541,0.063240,0.197444,0.086268,0.028512,0.224993,-0.160642,0.246229,0.196295,0.041476,0.144880,-0.007377,-0.044538,-0.125706,0.139959,0.089615,0.003279,0.101276,-0.311380,0.129344,0.068222,-0.394774,0.100526,-0.135943,-0.049800,0.116477,0.042462,0.062645,-0.206187,0.033369,0.144881,-0.065560,0.063621,0.042162,-0.108441,-0.183841,-0.001371,0.059584,-0.075034,0.115401,-0.032889,-0.003530,-0.067569,0.048542,0.018049,-0.094023,-0.165614,-0.252578,-0.268228,0.007680,-0.065464,0.138017,0.098117,-0.035033,0.000555,-0.166965,-0.074446,0.054065,-0.153830,-0.030496,-0.043293,-0.091196,0.137401,-0.059544,-0.010899,0.121673,0.000303,0.126497,-0.354515,-0.118327,-0.132394,-0.535723,-0.014947,-0.020534,-0.155946,-0.039654,-0.034384,0.116640,-0.390631,-0.091057,0.220263,0.028217,0.059375,0.224465,-0.007283,-0.182374,0.119743,-0.024719,-0.158075,-0.135398,0.145189,0.015531,-0.139729,-0.143110,-0.272110,0.118169,-0.330969,0.071774,0.007688,0.238346,-0.132670,-0.064376,-0.004128,-0.101762,0.174790,0.196421,-0.038151,0.068672,-0.220234,0.051268,-0.072997,0.100280,0.085259,0.128676,-0.118879,0.091299,-0.067379,0.031272,0.039111,-0.074872,-0.168067,-0.005904,0.062473,0.043743,-0.017565,-0.013694,-0.084332,-0.081108,0.024888,-0.036175,-0.052024,-0.015886,-0.026701,-0.052580,0.030591,0.000899,-0.087693,0.092087,-0.047234,-0.173535,0.086985,-0.021570,-0.022947,-0.024052,-0.158049,-0.058924,0.004797,0.076547,-0.113793,0.058838,0.192216,0.079426,0.236067,0.083628,0.185376,0.140209,-0.095001,0.050451,-0.019782,0.062123,-0.102223,-0.173601,0.070009,0.025791,-0.164650,-0.035426,-0.035036,-0.032671,-0.206619,-0.170212,-0.051848,-0.043663,0.103725,0.019764,-0.187399,-0.070472,-0.090762,-0.107262,-0.106534,-0.171416,-0.076209,-0.115332,0.108374,-0.034435,0.195097,-0.000021,-0.106291,0.016024,-0.118210,0.189427,-0.088882,0.117556,-0.352415,-0.074884,0.163011,0.113164,-0.062643,0.035204,-0.007925,0.021352,-0.176189,-0.026816,0.119600,0.011084,-0.048369,-0.024790,0.098350,-0.053828,-0.051204,-0.058047,-0.077265,-0.113208,0.035547,-0.101239,-0.261518,-0.063665,-0.115059,-0.095666,-0.022858,0.052948,0.104839,0.157875,0.280798,0.015014,-0.044130,-0.056535,-0.041959,-0.009127,-0.060617,-0.290834,-0.327729,-0.038847,-0.059458,0.033547,-0.060241,-0.107634,-0.049658,0.007735,-0.155621,0.029270,-0.027707,0.141673,-0.102618,-0.069055,0.053192,0.001201,-0.196072,-0.323210,-0.000204,0.028892,0.010767,0.174403,0.036877,0.133134,0.090110,-0.159052,-0.006320,-0.131532,-0.019189,-0.173801,0.158219,-0.235938,0.051942,0.024279,0.036935,0.003120,-0.071390,-0.012690,-0.093611,-0.129466,0.049775,-0.122932,0.089626,-0.060735,-0.036159,-0.029207,-0.043891,0.122801,-0.149281,0.126626,0.099658,-0.027731,-0.005895,-0.083544,0.078781,-0.302458,0.166586,-0.035440,-0.016374,-0.012027,-0.420384,-0.035565,0.061908,0.071731,-0.120861,-0.106311,-0.059440,-0.017214,-0.020016,0.050444,-0.145011,0.175323,-0.017191,0.122558,0.242983,0.056145,-0.023051,-0.048988,-0.116429,-0.123406,-0.083382,-0.146186,0.015369,0.217830,0.049575,0.121276,-0.174189,-0.011217,-0.142171,-0.397793,0.092941,0.025583,-0.065809,0.180098,-0.082156,-0.650249,0.012649,0.058261,-0.154431,0.251920,-0.095684,0.021445,0.029332,0.002465,-0.016483,0.116251,-0.074117,0.000461,-0.266116,-0.332274,-0.071020,0.016067,-0.281546,0.106736,0.017156,-0.081621,0.205355,-0.294602,0.199116,-0.017187,-0.780244,-0.016447,0.096996,0.090509,0.165792,-0.323656,0.128722,0.229888,-0.027767,0.028720,0.589067,-0.076100,0.018233,0.124946,-0.201269,0.180735,-0.002281,0.070714,-0.088168,0.175599,0.188904,0.167499,-0.060575,0.191291,-0.138281,-0.031807,-0.010053,-0.093173,-0.144183,-0.127506,0.228941,-0.082650,0.039871,0.119650,0.064098,0.118527,-0.014065,0.025962,0.191378,-0.413898,0.123186,-0.046590,-0.210973,-0.004786,-0.018843,-0.006837,-0.290494,-0.058260,0.151340,-0.044707,-0.007792,-0.011817,0.054480,0.207920,0.087588,0.060971,-0.079945,-0.004776,-0.217594,0.043373,0.009347,-0.026683,-0.022146,-0.155743,0.047687,-0.153178,-0.050617,-0.001311,-0.130925,-0.148987,-0.006629,0.124236,0.025279,-0.024553,0.032264,0.018015,-0.127793,-0.060022,-0.041464,-0.180309,-0.125477,0.088061,-0.015851,0.104511,0.138351,-0.074000,0.056464,-0.122432,-0.149295,-0.226716,0.108261,0.008648,-0.140838,0.018546,0.058465,-0.053046,-0.219402,0.144636,-0.135668,0.040783,-0.373654,0.210775,0.148588,-0.066459,-0.226373,0.002808,0.041631,-0.099266,-0.068355,-0.212373,-0.220684,0.146589,0.016633,0.042027,-0.133535,-0.127539,0.057021,-0.196017,-0.051187,0.211386,-0.050788,0.038754,0.259371,0.070453,-0.065214,0.135251,-0.015635,-0.211544,0.051842,0.120028,-0.107805,0.112072,-0.039987,-0.024499,-0.008358,0.052224,-0.333736,-0.037015,-0.053319,0.107933,-0.071030,0.104709,0.024063,-0.068261,-0.081689,0.096567,-0.071686,-0.141902,0.192679,-0.033966,0.016434,-0.009849,0.043157,-0.179370,0.189727,-0.091788,0.065084,0.153331,0.279106,-0.153214,0.028863,-0.097171,-0.020206,-0.061690,-0.090121,0.141988,-0.074216,0.177493,-0.018338,-0.248876,0.120536,-0.289159,0.280839,-0.768520,-0.292488,-0.011996,0.141979,-0.075362,-0.280862,-0.170048,0.293881,0.006334,-0.240208,0.536193,-0.023224,-0.570701,0.224508,0.102513,0.017759,0.106305,0.073637,-0.054343,-0.332598,-0.112637,-0.013637,0.079073,0.188771,0.186753,0.018429,-0.022831,-0.051903,0.036611,-0.180654,-0.063386,0.079973,0.114749,0.038077,-0.153438,-0.075482,-0.055370,-0.344365,-0.539853,0.087481,0.022858,-0.028583,-0.010720,0.109369,-0.122893,-0.169762,-0.094680,-0.012053,-0.228095,0.031288,-0.129575,-0.203049,-0.035333,0.051459,0.099966,0.083992,0.004746,-0.052037,0.014351,0.000391,-0.089647,-0.036511,-0.150207,-0.063398,0.049301,0.036840,-0.087995,0.125284,-0.105742,0.053130,-0.088437,-0.001166,-0.059534,0.043438,-0.017644,0.115107,-0.044649,-0.325876,-0.181427,-0.094217,-0.107426,-0.309520,0.048770,-0.255411,-0.042838,0.189006,0.229612,0.069706,0.053136,0.005287,-0.107174,-0.104232,-0.080923,-0.099272,0.094083,0.067499,-0.138834,-0.007108,-0.173509,-0.025283,0.030123,0.066447,-0.110818,-0.081520,-0.108233,0.034974,-0.193434,0.042754,0.107607,0.111766,-0.022214,0.115797,-0.119237,-0.047916,0.074731,-0.082336,0.167933,-0.061186,0.119580,-0.128614,-0.116852,0.053451,-0.141988,-0.034854,-0.194952,-0.212736,0.064402,-0.083015,0.145050,-0.010354,0.092525,-0.000085,-0.309006,-0.072380,-0.070758,-0.101978,-0.095908,0.021567,0.008562,-0.098360,0.048798,-0.045612,-0.055383,0.008389,-0.060932,0.084057,0.166301,0.181117,-0.029694,0.109123,-0.044972,0.078980,0.045579,0.044901,-0.047342,-0.024449,-0.216999,0.098940,0.035731,0.092790,-0.016421,0.068020,-0.062310,0.067623,-0.093118,-0.040114,-0.034694,0.007909,-0.034096,-0.035375,-0.026733,0.076424,0.092451,-0.170739,-0.517171,0.038163,0.097746,0.124030,0.122564,0.014706,0.003453,0.040309,0.165843,0.017144,-0.232709,-0.084707,0.088252,0.083546,0.112229,0.025713,0.063751,-0.078081,-0.283581,-0.087254,-0.188495,0.061063,0.045443,-0.071406,-0.144031,-0.337206,-0.015786,0.158400,-0.160943,0.057268,-0.097137,-0.354844,0.152826,-0.330712,-0.258579,-0.409727,0.025792,0.025150,0.040121,-0.142265,0.047450,-0.007902,0.178551,0.055870,0.013283,0.175407,-0.334736,-0.265908,-0.086277,-0.349250,-0.306706,0.108130,0.010731,0.035265,-0.022367,0.199684,-0.116916,-0.091650,0.206740,0.002585,-0.043957,0.130516,-0.006210,0.029842,-0.095845,0.020127,-0.167395,-0.062788,0.079457,0.012015,-0.037523,-0.091594,-0.109226,-0.014129,0.057104,0.099015,-0.001626,-0.076573,0.079296,-0.070946,0.022423,-0.052748,0.167698,0.210918,0.027796,0.005107,-0.054858,-0.037372,-0.149067,0.005103,0.058304,-0.241244,0.164607,0.028875,0.097492,-0.151929,-0.033545,0.031628,-0.102461,-0.128347,0.125168,0.022705,0.025386,0.233915,-0.055003,-0.038006,-0.052659,-0.072823,0.063376,-0.015267,0.061712,0.031248,-0.049607,0.003497,0.097936,-0.051675,0.003279,-0.146934,0.048051,-0.135041,-0.151450,0.005187,-0.014109,-0.028187,0.105835,-0.024329,0.131054,0.029944,0.036214,-0.142027,-0.137248,-0.049977,-0.050065,-0.156921,-0.088910,0.024207,0.129202,0.182002,-0.003064,-0.035036,-0.086172,0.001462,0.157598,-0.149112,0.063452,0.091561,-0.112176,0.009423,0.052762,0.119821,0.059988,-0.056007,0.004751,0.169658,0.071919,-0.039514,0.073201,0.020152,0.285563,-0.080331,0.110402,0.059895,0.020704,-0.098005,0.040933,-0.179355,0.056394,-0.015268,-0.072913,-0.042825,-0.351277,0.129090,0.089861,0.050623,0.120588,0.010924,-0.098011,0.030640,-0.250497,-0.008832,0.164731,-0.108340,-0.061552,-0.251760,-0.098535,-0.034665,0.028763,-0.002975,0.181877,-0.023852,0.009845,-0.133293,-0.456644,0.050374,0.006582,0.003490,-0.035635,0.037587,0.009253,0.063925,0.089044,0.017973,-0.141462,-0.108325,-0.033711,0.100960,-0.050186,-0.000663,-0.038657,-0.023003,0.115183,-0.000655,-0.034093,-0.079875,0.083643,0.099213,-0.124442,-0.080078,-0.015107,0.114331,-0.090088,-0.086594,0.138849,-0.125005,-0.111965,-0.097391,0.099623,-0.051275,0.100858,-0.062999,0.089575,-0.111726,-0.186259,-0.038170,-0.090315,0.092473,-0.070838,0.082515,-0.012352,0.048282,0.103501,-0.200141,-0.269474,0.119635,0.096024,0.053950,-0.021547,-0.139569,0.014898,-0.045392,0.097530,-0.289863,-0.131757,0.109143,-0.083205,-0.211891,0.027137,-0.433949,0.079080,-0.007751,0.131368,0.087131,-0.061841,-0.581890,-0.205595
};

#endif


