//#include "../jedi.h"

#ifndef W3_H_
#define W3_H_

// numpy array shape [15, 10]
/*
input_t w3_1[N_LAYER_4 * N_OUTPUT_1] = {
        1, 1, 1, 1, 1, 1,1, 1, 1,1, 1, 1,1, 1, 1,
        1, 1, 1, 1, 1, 1,1, 1, 1,1, 1, 1,1, 1, 1,
        1, 1, 1, 1, 1, 1,1, 1, 1,1, 1, 1,1, 1, 1,
        1, 1, 1, 1, 1, 1,1, 1, 1,1, 1, 1,1, 1, 1,
        1, 1, 1, 1, 1, 1,1, 1, 1,1, 1, 1,1, 1, 1,
        1, 1, 1, 1, 1, 1,1, 1, 1,1, 1, 1,1, 1, 1,
        1, 1, 1, 1, 1, 1,1, 1, 1,1, 1, 1,1, 1, 1,
        1, 1, 1, 1, 1, 1,1, 1, 1,1, 1, 1,1, 1, 1,
        1, 1, 1, 1, 1, 1,1, 1, 1,1, 1, 1,1, 1, 1,
        1, 1, 1, 1, 1, 1,1, 1, 1,1, 1, 1,1, 1, 1,
}; */

input_t w3[N_LAYER_4 * N_OUTPUT_1] = {
-0.076671,0.127308,-0.067814,-0.087483,-0.084762,-0.114114,0.026665,-0.028657,0.096549,-0.050716,-0.013574,-0.029564,-0.191538,-0.226823,0.198041,0.224790,0.049680,-0.002073,0.270038,0.100252,0.231846,0.118844,-0.148086,0.435770,-0.124122,0.087001,0.136664,-0.169791,0.003761,-0.314105,0.045776,0.000502,-0.015537,0.164394,-0.094950,0.142314,0.013264,0.037504,-0.049249,-0.079356,-0.194447,0.118782,0.081966,0.047899,0.042095,0.056239,0.122934,-0.126684,0.055814,-0.048521,0.235955,-0.031585,0.102157,0.029148,-0.028583,0.177694,0.057721,0.079813,-0.086865,-0.033621,0.031485,0.051398,0.010779,-0.268640,-0.121642,-0.231729,0.074097,0.002846,-0.028295,-0.477503,-0.044861,-0.078253,0.149656,-0.528741,-0.350054,-0.024069,0.145351,-0.019997,-0.004730,-0.278603,-0.630077,-0.020834,-0.278070,-0.067762,-0.079158,-0.750957,-0.080026,-0.159703,0.247821,-0.164661,-0.001435,0.014492,0.107191,0.159332,-0.295814,0.072796,0.018845,0.083232,0.146337,-0.510806,-0.253816,-0.187280,0.026802,-0.114648,-0.045547,-0.134270,-0.197302,-0.011470,0.038759,-0.102885,-0.127317,0.071446,0.014234,0.009959,0.028804,-0.169978,-0.145282,0.114350,0.073226,-0.032120,-0.161130,0.038117,0.004052,-0.540892,-0.381924,-0.432758,0.170218,0.114866,0.168736,0.085256,0.352490,-0.015743,-0.115350,-0.177769,-0.041657,-0.018371,0.071476,0.099081,-0.044630,-0.001415,-0.105255,-0.129408,-0.045682,-0.092911,-0.025273,-0.161069,-0.373289,0.018760,0.018488,-0.187955,-0.001195,-0.429275,-0.318624,-0.140662,-0.118357,-0.021362,-0.026249,0.153206,0.170782,-0.082236,-0.296269,-0.418468,0.153525,0.150404,0.146549,0.023676,0.031533,0.120439,-0.058793,0.052443,0.012210,-0.142074,0.215604,-0.047111,-0.012540,0.117720,0.051474,0.072890,-0.154212,0.179928,0.060706,0.199909,-0.196092,0.226068,-0.400191,0.057375,0.201598,-0.039823,0.123200,-0.006673,0.154127,0.062252,-0.036810,-0.499699,0.150890,0.034638,0.061392,0.037505,0.009523,-1.008604,-0.086626,-0.040722,-0.302521,-0.060958,-0.060300,0.236440,-0.145443,-0.097524,-0.156207,0.425385,0.066626,-0.062176,0.025068,-0.204801,0.243718,-0.252346,0.153880,0.036430,0.176657,-0.428151,-0.420904,-0.135515,0.187223,-0.011302,0.149895,0.051616,0.364071,-0.125090,-0.023960,0.079354,0.284437,-0.672492,-0.050359,-0.493677,-0.007994,-0.092074,-0.064995,-0.335723,0.134589,-0.082994,-0.105466,-0.014623,0.168063,0.104633,0.053130,0.145411,0.048165,0.098692,0.091915,-0.227915,0.231134,-0.111770,-0.173593,-0.068106,-0.466445,0.096743,-0.117122,0.021248,0.032078,-0.577043,-0.161890,-0.216570,0.175763,0.039379,-0.138324,-0.030045,-0.186622,0.170921,-0.256106,0.108791,-0.032223,-0.211506,0.083212,-0.316726,-0.000768,-0.265450,-0.141088,-0.398967,0.145169,-0.016050,0.147751,-0.074958,-0.130400,-0.038116,0.066239,0.207701,-0.069365,-0.238777,0.004040,0.250490,-0.069846,-0.054129,0.077367,0.014013,0.106065,0.118812,-0.014225,-0.273446,0.090666,0.040688
};

#endif


