//#include "../jedi.h"

#ifndef W4_H_
#define W4_H_

// numpy array shape [15, 10]
/*
input_t w1_2[(P + D_e) * N_LAYER_6] = {
        1, 1, 1, 1, 1, 1,1, 1, 1,1, 1, 1,1, 1, 1,
        1, 1, 1, 1, 1, 1,1, 1, 1,1, 1, 1,1, 1, 1,
        1, 1, 1, 1, 1, 1,1, 1, 1,1, 1, 1,1, 1, 1,
        1, 1, 1, 1, 1, 1,1, 1, 1,1, 1, 1,1, 1, 1,
        1, 1, 1, 1, 1, 1,1, 1, 1,1, 1, 1,1, 1, 1,
        1, 1, 1, 1, 1, 1,1, 1, 1,1, 1, 1,1, 1, 1,
        1, 1, 1, 1, 1, 1,1, 1, 1,1, 1, 1,1, 1, 1,
        1, 1, 1, 1, 1, 1,1, 1, 1,1, 1, 1,1, 1, 1,
        1, 1, 1, 1, 1, 1,1, 1, 1,1, 1, 1,1, 1, 1,
        1, 1, 1, 1, 1, 1,1, 1, 1,1, 1, 1,1, 1, 1,
        1, 1, 1, 1, 1, 1,1, 1, 1,1, 1, 1,1, 1, 1,
        1, 1, 1, 1, 1, 1,1, 1, 1,1, 1, 1,1, 1, 1,
        1, 1, 1, 1, 1, 1,1, 1, 1,1, 1, 1,1, 1, 1,
        1, 1, 1, 1, 1, 1,1, 1, 1,1, 1, 1,1, 1, 1,
        1, 1, 1, 1, 1, 1,1, 1, 1,1, 1, 1,1, 1, 1,
        1, 1, 1, 1, 1, 1,1, 1, 1,1, 1, 1,1, 1, 1,
        1, 1, 1, 1, 1, 1,1, 1, 1,1, 1, 1,1, 1, 1,
        1, 1, 1, 1, 1, 1,1, 1, 1,1, 1, 1,1, 1, 1,
        1, 1, 1, 1, 1, 1,1, 1, 1,1, 1, 1,1, 1, 1,
        1, 1, 1, 1, 1, 1,1, 1, 1,1, 1, 1,1, 1, 1,
        1, 1, 1, 1, 1, 1,1, 1, 1,1, 1, 1,1, 1, 1,
        1, 1, 1, 1, 1, 1,1, 1, 1,1, 1, 1,1, 1, 1,
        1, 1, 1, 1, 1, 1,1, 1, 1,1, 1, 1,1, 1, 1,
        1, 1, 1, 1, 1, 1,1, 1, 1,1, 1, 1,1, 1, 1
};*/

input_t w4[(P + D_e) * N_LAYER_6] = {
0.103160,-0.016001,-0.011706,-0.000910,-0.020000,0.020882,-0.078892,-0.010407,0.003556,-0.015670,-0.008091,-0.053822,-0.018724,0.022039,-0.010829,-0.002862,-0.011051,0.022706,0.050710,-0.015416,0.007840,0.053442,0.016871,-0.005566,0.098759,0.014154,0.062806,-0.034151,0.137145,0.018294,-0.003693,0.049269,0.002104,-0.010020,-0.029111,0.010792,-0.008890,-0.004353,0.004169,0.029637,-0.032348,0.023506,0.010813,0.014666,-0.020408,0.000492,0.010140,-0.081105,-0.001775,-0.013285,0.079346,-0.009249,0.010145,-0.000743,-0.014134,-0.008841,0.150388,-0.003326,-0.005089,-0.003246,-0.059148,-0.045985,0.021479,0.009779,0.029117,0.020980,-0.007588,-0.002452,0.020831,-0.010725,0.013162,-0.154214,0.027039,-0.013718,0.080718,-0.022245,0.046665,-0.005669,-0.023460,0.020241,0.006242,0.003140,-0.006945,-0.007991,-0.012138,0.065726,-0.011011,0.001848,-0.015466,0.013886,-0.010057,-0.016310,-0.036916,0.004814,0.013747,-0.004680,-0.003559,0.009279,0.001606,-0.013690,-0.031996,0.010245,-0.020867,-0.003373,0.041022,-0.059387,-0.030158,0.014917,0.017059,0.000751,-0.041579,0.025956,-0.007468,-0.034752,0.100955,0.044933,0.024697,0.005286,0.003255,-0.000015,-0.042899,-0.138659,-0.112485,-0.016129,-0.052424,0.020447,-0.001674,-0.002579,-0.026007,-0.010488,-0.012174,0.008207,-0.020507,0.020937,0.042045,0.015056,0.013093,0.006673,-0.039647,0.010240,0.033064,0.025685,0.013171,-0.036449,-0.119357,-0.017955,0.001050,-0.005991,-0.019554,0.003778,-0.051456,0.007844,0.056371,0.007611,-0.051653,0.054119,-0.015925,-0.082494,0.026899,0.035930,0.010307,0.115629,-0.015666,0.049307,0.039747,0.038248,-0.065576,-0.048800,-0.015266,-0.042428,0.148945,-0.092505,-0.025751,-0.089610,0.044129,-0.027031,-0.040053,0.141296,-0.184557,0.102968,0.033790,-0.034186,-0.042252,-0.043017,0.034095,0.029004,-0.072846,-0.035828,-0.049635,0.005942,0.064069,0.032844,0.001588,0.037111,-0.035740,0.033483,-0.104529,0.035904,0.062038,-0.007345,0.032492,-0.160250,-0.171222,-0.121448,-0.268096,-0.014244,-0.039652,-0.193614,0.194953,0.074212,-0.411769,-0.229357,-0.275209,-0.225089,-0.060533,-0.262637,-0.048010,-0.296818,0.239557,-0.322356,0.050240,0.021231,0.126890,-0.147523,-0.100763,0.240988,-0.147513,-0.007896,-0.213003,0.237695,0.104577,0.240580,-0.218801,0.083401,0.041793,-0.289414,-0.049741,0.173135,0.194211,0.082120,-0.030928,0.021540,-0.044134,-0.027548,0.313007,0.031752,-0.454267,-0.051795,0.232006,0.103434,0.051349,0.036434,0.116084,0.143377,-0.218269,0.174287,-0.061429,-0.014152,-0.038058,-0.014429,0.246088,0.014488,0.102298,0.163500,-0.113550,0.190977,-0.044628,0.066506,0.130875,0.140275,-0.035175,-0.162092,-0.253751,0.177561,-0.316183,-0.184175,0.186978,0.036600,-0.216138,-0.036536,0.033565,0.069061,0.188709,-0.044315,-0.286261,0.135892,-0.080621,0.046160,-0.127639,0.184152,-0.001479,0.062824,0.003711,0.156802,-0.182921,-0.059692,0.073084,-0.039175,-0.026643,0.072264,0.027942,-0.110870,-0.231509,0.231998,-0.329397,-0.022346,-0.009896,-0.008045,-0.029968,-0.099457,-0.413661,-0.261894,-0.229282,0.014370,0.146700,0.096346,0.179467,-0.333792,0.060021,-0.380013,-0.048529,-0.158216,0.339562,-0.139370,0.005474,0.312782,-0.320930,-0.063471,-0.128421,0.162515,-0.170413,0.018015,-0.340769,-0.005421,0.265839,-0.091375,-0.247508,0.299659,0.145655,-0.285622,-0.023644,-0.273046,0.165906,-0.205206,0.017157,0.116453,-0.526949,-0.130562,0.148002,0.009338,0.090057,-0.120083,0.113184,-0.188788,-0.144248,0.303590,0.063278,0.184295,-0.236413,0.008852,0.056324,-0.151320,0.155849,0.412630,-0.281137,-0.130726,-0.095495,0.079911,-0.029518,-0.020838,-0.014913,-0.220059,0.083688,0.073259,-0.077516,0.151469,0.017774,-0.166080,-0.114039,-0.176037,-0.063455,-0.200621,0.141292,-0.266535,-0.139601,-0.073531,-0.084282,-0.073208,0.239516,-0.181165,-0.121951,-0.004355,-0.146764,0.076026,-0.096574,-0.022526,0.101011,0.292348,0.164114,0.063485,-0.694306,0.108177,0.201435,-0.273454,-0.022170,0.019500,0.354728,0.220415,-0.045557,0.112207,0.024444,0.009173,-0.060038,-0.301930,-1.499364,0.287657,-0.162690,0.333534,-0.075424,0.127423,0.000265,-0.718903,0.095284,-0.069939,-0.372995,-0.135502,-0.156636,0.000730,-0.133182,0.010076,-0.196309,-0.083875,-0.142757,0.234898,0.213054,-0.196556,-0.100179,0.029478,0.225839,-0.528347,0.431127,-0.059715,0.720428,0.133025,0.219115,0.107249,-0.071953,0.004686,0.099340,0.371225,1.816532,0.056200,-0.144269,0.108816,0.083895,0.001444,0.437372,-0.022750,0.236568,-0.095036,-0.186078,0.071065,-0.069971,0.099248,0.288335,0.196124,0.433074,-0.013325,0.185527,-0.369884,0.015876,0.204337,-0.203768,0.080992,0.146955,0.109125,-0.026617,-0.100405,0.158791,-0.123343,-0.060437,-0.253413,-0.189698,0.394965,0.063932,0.209860,0.010931,-0.375606,-0.166692,0.129050,0.060135,0.138924,0.080111,0.130366,-0.099165,-0.073422,-0.161524,-0.551826,-0.110974,0.086886,-0.310851,-0.153142,0.015872,-0.030083,0.005535,0.000749,-0.255015,-0.037198,0.032905,0.006210,0.011312,0.074030,-0.017598,-0.088078,-0.164697,-0.085431,-0.044718,0.028589,0.052860,0.165146,-0.020622,-0.225199,-0.013818,-0.013471,0.050170,-0.107364,-0.028944,0.119985,-0.022140,0.033230,-0.053872,-0.019710,-0.019065,0.090847,0.040329,-0.099818,0.015507,-0.009008,0.090518,-0.088489,0.025481,0.034543,0.349706,0.033934,-0.051208,0.043957,0.036920,0.081604,0.003004,-0.007188,-0.217654,0.305013,-0.080997,-0.160933,0.137296,-0.004101,-0.149244,0.030736,-0.002514,-0.161476,-0.221793,-0.109158,-0.006840,-0.234955,-0.189667,0.122068,0.508490,0.015541,0.162610,-0.065487,-0.195057,0.269158,0.093858,0.049403,0.466369,-0.075095,0.035021,0.334825,0.068097,-0.132509,0.111101,0.076442,0.186496,0.122659,0.051752,0.111934,-0.011839,0.139268,-0.066174,-0.202715,-0.076176,-0.040381,-0.984146,0.313232,0.264277,-0.011003,-0.151015,0.471827,0.254598,-0.042457,-1.522385,7.281968,3.476366,3.481334,-0.526699,-4.325798,-0.320677,1.426275,-2.886473,3.504675,0.650175,-0.502104,-0.008370,-2.043424,2.878778,0.318347,-3.191129,-0.935037,4.172695,-2.122489,0.553116,0.819693,-0.492465,-1.813071,-0.456341,-0.236343,-2.541627,-3.014211,-0.219435,1.459464,1.824629,2.282436,0.148482,10.950260,0.594708,-3.115428,-1.145451,4.033143,-1.543718,-2.852595,-3.301729,-0.942295,-3.422572,-1.451758,-0.817588,-1.378763,1.275981,-2.260733,2.000818,4.708829,1.675720,-0.729591,0.456801,0.424209,-0.461820,-0.561595,0.596001,0.107138,-1.969079,-1.310114,0.442733,-2.730972,2.210307,1.769256,-2.130210,2.386345,6.037322,0.071977,2.097820,-0.140276,3.195693,0.701418,-0.902686,-0.645367,0.089642,-1.220006,-2.130671,2.166363,-0.783087,2.495950,-2.918486,-1.937660,1.729582,-1.668378,0.490929,-1.924763,-2.209893,0.797051,-1.307649,2.459073,-0.249197,1.597773,4.419680,2.293746,-0.631476,-1.820683,1.214150,2.127250,1.542015,-4.260005,0.012507,-0.141460,0.040222,-0.074971,0.053886,-0.028235,-0.113467,0.028603,-0.125537,-0.197474,-0.012993,-0.187092,-0.126907,0.091635,-0.427897,-0.135922,0.036843,-0.116276,-0.000014,-0.069618,0.125462,-0.198857,-0.093101,0.085567,0.231516,0.076335,-0.001506,0.154500,0.059932,-0.166377,0.113250,0.021894,0.096486,0.033651,-0.163225,-0.046291,-0.134900,-0.081465,0.219027,-0.211278,-0.022072,0.057707,-0.212216,0.050950,-0.137914,0.024178,-0.105220,0.064661,0.019602,-0.007044,1.777539,-0.077010,0.110122,0.324429,0.189746,-0.069005,0.348472,0.155399,-0.010758,-0.238785,0.052564,-0.105059,-0.020229,0.143672,0.083552,0.130745,0.224312,0.090666,0.278803,-0.041896,0.024606,0.283028,-0.200105,-0.134014,-0.021704,0.259909,0.054580,-0.220960,0.065590,0.047739,0.204612,0.082562,-0.050003,0.385352,-0.006098,-0.056960,0.054847,-0.172681,-0.075422,0.232699,0.067152,-0.064144,0.002516,-0.018316,-0.063519,0.028751,-0.051165,-0.394262,-0.003647,0.011319,0.041342,-0.151271,-0.081175,-0.122260,0.166113,0.018962,-0.155565,0.105387,0.086948,0.135608,0.026010,0.026472,0.187787,0.143785,0.218326,-0.103745,-0.014719,0.121995,-0.168649,-0.000878,-0.103744,0.058417,0.102509,0.157756,-0.044960,0.115561,-0.095271,-0.024587,0.020279,-0.095776,0.098632,-0.071835,0.041107,-0.064669,-0.147605,0.076334,-0.149246,-0.055393,-0.029460,0.016045,-0.026029,0.015337,-0.031268,0.079016,-0.169219,-0.126853,0.040954,0.019941,0.094119,0.120864,-0.135888,-0.097485,0.047457,-0.183948,0.171840,0.049529,-0.077592,0.136795,-0.147202,-0.228980,0.167397,0.131945,0.036232,0.039848,-0.266702,-0.150765,-0.830672,0.188764,0.039419,-0.105093,0.137778,-0.104869,0.102860,0.129137,-0.230047,-0.160786,0.059105,0.004093,0.134523,-0.114191,-0.154587,0.099130,0.117231,-1.395104,-0.056673,0.058973,-0.129161,0.034363,-0.096958,-0.005416,-0.137058,0.045650,-0.349608,-0.211308,-0.147354,0.210631,-0.063303,0.084651,0.066828,-0.226852,0.155694,0.274812,0.281006,0.123700,0.042641,0.169817,0.204877,0.030115,-0.001528,0.019438,0.172459,-0.010945,0.134533,0.112596,-0.143489,-0.092363,0.346667,-0.122381,-0.087723,-0.026547,0.022063,0.093375,-0.060943,-0.033250,0.079328,-0.100154,0.223114,0.223109,-0.056618,0.165834,0.001901,-0.204505,-0.171366,0.205076,-0.314681,0.056637,-0.023630,-0.174172,0.098659,-0.064734,-0.247731,0.219019,0.082489,-0.131599,-0.063069,-0.123967,-0.060810,0.233462,0.468821,0.090997,0.308344,0.496667,-0.006000,0.182790,0.167167,0.142119,0.030434,0.080832,0.099972,-0.148961,-0.089218,-0.152490,0.152505,0.085545,0.214233,0.385938,-0.723885,0.036410,0.028084,0.192641,0.207952,0.062025,0.122959,0.169989,0.066999,-0.131872,0.025629,0.255588,-0.410534,-0.028583,-0.271871,-0.053413,0.039278,-0.075709,0.195995,-0.100307,0.007797,-0.104987,0.105985,0.141242,0.022001,0.121411,0.121989,0.286586,0.179683,0.013664,-0.066547,0.162247,-0.029974,-0.091081,-0.195354,0.077690,-0.132672,-0.080222,-0.217059,-0.052845,-0.234722,0.148156,0.002655,0.099555,-0.044829,0.126673,-0.115231,-0.230160,-0.124271,-0.213413,0.301009,-0.073070,0.027752,-0.022869,-0.056922,-0.197122,0.044232,-0.046105,-0.653392,0.111916,0.064525,-0.155936,0.044457,-0.003815,0.151397,0.117817,-0.039514,0.176290,-0.072341,0.007588,0.199467,0.142776,0.120920,-0.032808,0.059689,-0.197560,0.148923,-0.145431,-0.143726,-0.013310,-0.174540,-0.198567,-0.052443,0.042515,0.077515,0.187015,-0.066010,-0.074903,-0.166615,0.158390,0.155615,0.307274,-0.248176,0.317305,-0.032162,0.185234,0.223115,0.293164,0.171587,0.254374,-0.099051,0.010191,0.008749,-0.025849,0.021182,-0.084365,0.143676,-0.020557,0.127047,-0.001498,0.028386,-0.093266,-0.445830,0.237700,-0.211106,0.046589,-0.160687,-0.229193,-0.050067,-0.021851,-0.022080,0.012849,-0.241781,-0.049260,0.081442,-0.132151,-0.272227,-0.015266,-0.256422,-0.085170,0.047418,-0.099677,0.057316,-0.147208,-0.325810,-0.430966,-0.116579,0.015216,-0.137014,-0.104990,-0.218810,0.051841,0.094081,-0.041611,-0.146929,0.150322,0.053379,-0.276518,-0.520705,-0.010031,-0.099420,-0.120045,0.067439,-0.061127,-0.071885,-0.061340,0.042468,0.095957,0.053910,0.141500,-0.039334,-0.359316,-0.022789,0.088287,0.171514,0.119175,-0.053128,-0.183617,0.157946,-0.082770,0.074877,-0.045855,0.215348,-0.457675,-0.098980,0.103092,-0.263417,-0.113253,0.024457,-0.091256,-0.016195,-0.366793,0.064323,-0.117753,0.083335,-0.510835,-0.337611,-0.282981,-0.146293,-0.085396,-0.044662,-0.178701,0.066743,-0.047204,-0.078450,-0.199810,-0.131049,0.048771,-0.290594,0.037917,0.294817,-0.111628,-0.004822,0.153162,0.050175,-0.485768,-0.016247,-0.180627,-0.249687,-0.008060,-0.071577,0.018622,-0.129469,0.368329,-0.189837,-0.122138,0.298149,-1.720283,0.066293,-0.027805,-0.056342,0.194634,-0.027077,-0.317781,0.081471,0.323533,0.117160,0.211530,-0.085942,0.132944,-0.166509,0.028694,-0.096575,-0.183711,-0.004461,-0.402185,0.175283,-0.034321,0.225062,0.000263,0.107928,-0.192800,0.038321,0.108327,0.140293,-0.162610,-0.039064,-0.093512,-0.544801,0.080256,-0.203089,0.126670,-0.096059,0.029507,0.019340,0.092147,-0.031052,-0.146667,-0.122124,0.063234,0.023419,-0.219991,0.062122,-0.029119,-0.065475,0.026543,0.056092,-0.476030,-0.098557,0.110316,0.027402,0.173906,-0.126996,-0.178129,0.053644,-0.065614,-0.065609,0.119159,0.168868,0.141557,0.121624,-0.084480,-0.114203,0.056420,0.030140,0.073531,0.060510,0.142190,-0.054287,0.095671,-0.211926,0.167520,-0.060210,-0.037494,-0.130939,-0.149153,0.039972,0.221825,-0.425147,-0.094670,0.145484,-0.291296,-0.008208,-0.001006,-0.108085,-0.185798,-0.226541,-0.096377,-0.114862,0.149927,0.150836,0.095154,0.161021,-0.064474,-0.144209,0.245219,-0.202857,0.242165,0.034364,-0.062207,-0.073740,0.032680,-0.020173,0.149559,0.021032,-0.171463,-0.075984,-0.135271,0.071228,0.132901,-0.016976,0.122108,0.311187,-0.216121,0.098511,-0.158741,-0.195764,-0.093807,0.252278,-0.152136,0.061328,-0.101266,-0.114474,-0.154271,0.002284,-0.169986,-0.034487,-0.029828,0.250005,-0.024074,0.050379,-0.022628,-0.450710,-0.273487,-0.069759,0.175305,0.171379,-0.236596,0.302800,0.052169,-0.345669,0.231955,-0.017277,-0.116657,0.025832,0.082373,0.039262,-0.032303,0.064907,0.026575,-0.025078,-0.162390,0.064311,-0.092671,-0.186379,0.173660,-0.275144,0.327283,-0.111133,-0.298395,-0.084085,-0.041656,-0.081985,0.103354,-0.084546,0.217596,-0.190279,-0.140027,0.232672,-0.036062,0.084758,0.355059,-0.018274,0.009811,-0.071456,-0.167073,0.096350,-0.069694,0.056399,-0.067394,0.044622,0.007991,0.162527,-0.012837,-0.210469,0.051738,0.008362,0.133560,-0.123328,-0.067391,0.014265,-0.158406,0.199552,-0.279745,0.123988,0.121908,-0.153118,0.279993,-0.147777,-0.190777,0.251240,-0.070647,0.124127,-0.080324,-0.084139,0.059618,-0.003209,-0.057415,0.018869,-0.160344,0.169777,-0.078216,-0.180055,0.115076
};

#endif


