//#include "../jedi.h"

#ifndef W5_H_
#define W5_H_

// numpy array shape [15, 10]
/*
input_t w2_2[N_LAYER_6 * N_LAYER_8] = {
        1, 1, 1, 1, 1, 1,1, 1, 1,1, 1, 1,1, 1, 1,
        1, 1, 1, 1, 1, 1,1, 1, 1,1, 1, 1,1, 1, 1,
        1, 1, 1, 1, 1, 1,1, 1, 1,1, 1, 1,1, 1, 1,
        1, 1, 1, 1, 1, 1,1, 1, 1,1, 1, 1,1, 1, 1,
        1, 1, 1, 1, 1, 1,1, 1, 1,1, 1, 1,1, 1, 1,
        1, 1, 1, 1, 1, 1,1, 1, 1,1, 1, 1,1, 1, 1,
        1, 1, 1, 1, 1, 1,1, 1, 1,1, 1, 1,1, 1, 1,
        1, 1, 1, 1, 1, 1,1, 1, 1,1, 1, 1,1, 1, 1,
        1, 1, 1, 1, 1, 1,1, 1, 1,1, 1, 1,1, 1, 1,
        1, 1, 1, 1, 1, 1,1, 1, 1,1, 1, 1,1, 1, 1,
        1, 1, 1, 1, 1, 1,1, 1, 1,1, 1, 1,1, 1, 1,
        1, 1, 1, 1, 1, 1,1, 1, 1,1, 1, 1,1, 1, 1,
        1, 1, 1, 1, 1, 1,1, 1, 1,1, 1, 1,1, 1, 1,
        1, 1, 1, 1, 1, 1,1, 1, 1,1, 1, 1,1, 1, 1,
        1, 1, 1, 1, 1, 1,1, 1, 1,1, 1, 1,1, 1, 1,
        1, 1, 1, 1, 1, 1,1, 1, 1,1, 1, 1,1, 1, 1,
        1, 1, 1, 1, 1, 1,1, 1, 1,1, 1, 1,1, 1, 1,
        1, 1, 1, 1, 1, 1,1, 1, 1,1, 1, 1,1, 1, 1,
        1, 1, 1, 1, 1, 1,1, 1, 1,1, 1, 1,1, 1, 1,
        1, 1, 1, 1, 1, 1,1, 1, 1,1, 1, 1,1, 1, 1,
        1, 1, 1, 1, 1, 1,1, 1, 1,1, 1, 1,1, 1, 1,
        1, 1, 1, 1, 1, 1,1, 1, 1,1, 1, 1,1, 1, 1,
        1, 1, 1, 1, 1, 1,1, 1, 1,1, 1, 1,1, 1, 1,
        1, 1, 1, 1, 1, 1,1, 1, 1,1, 1, 1,1, 1, 1,
        1, 1, 1, 1, 1, 1,1, 1, 1,1, 1, 1,1, 1, 1,
        1, 1, 1, 1, 1, 1,1, 1, 1,1, 1, 1,1, 1, 1,
        1, 1, 1, 1, 1, 1,1, 1, 1,1, 1, 1,1, 1, 1,
        1, 1, 1, 1, 1, 1,1, 1, 1,1, 1, 1,1, 1, 1,
        1, 1, 1, 1, 1, 1,1, 1, 1,1, 1, 1,1, 1, 1,
        1, 1, 1, 1, 1, 1,1, 1, 1,1, 1, 1,1, 1, 1
};*/

input_t w5[N_LAYER_6 * N_LAYER_8] = {
-0.091956,-0.152840,-0.086352,-0.132561,0.227917,-0.088366,0.171730,0.052712,-0.062685,0.019943,0.289747,0.002125,-0.010694,-0.088061,0.123646,-0.009366,-0.012306,0.042889,0.030093,0.060494,0.135092,-0.254182,-0.015838,-0.075359,-0.164295,-0.075275,-0.048286,0.108325,0.099927,0.014315,-0.095562,-0.112741,0.167780,0.215353,0.012912,0.097439,-0.344814,-0.034505,-0.095898,0.066316,0.274395,0.094723,0.015391,-0.013420,-0.385452,-0.229286,-0.082885,0.005631,0.079024,0.201286,0.090096,-0.250086,0.145736,0.045350,-0.017610,0.112438,-0.140261,0.226028,0.011007,0.010206,-0.086315,0.068329,-0.073032,0.214613,-0.086448,0.132493,-0.101232,-0.081510,0.203533,-0.179876,-0.180688,0.196214,0.130059,0.011790,0.097290,0.147077,-0.224476,0.173909,0.085303,-0.168575,-0.200448,0.005164,0.154426,0.078117,-0.106521,0.191215,0.103933,-0.140115,0.204825,-0.018444,0.006771,0.002210,-0.008763,0.195857,0.115249,-0.115096,0.194551,-0.175424,0.287430,-0.459662,-0.174922,-0.038708,0.126208,-0.061638,-0.154219,-0.196592,-0.028150,0.076940,0.266413,0.025663,0.108314,-0.000181,-0.071594,0.079857,-0.227452,-0.127101,-0.099909,-0.132269,-0.106798,-0.087570,-0.156772,0.113347,0.036204,-0.040998,-0.021121,-0.087567,-0.049663,-0.191698,0.115767,-0.052355,-0.172489,-0.010236,-0.283861,-0.104547,0.073458,-0.232889,0.165708,0.029901,0.132722,0.239783,-0.135850,0.027715,0.212488,-0.417632,-0.037618,-0.006396,0.002613,0.138072,0.018541,-0.362802,-0.039870,0.163614,-0.059079,-0.118301,0.106501,0.047029,-0.035310,-0.298918,-0.000595,0.017771,-0.079830,0.063233,0.170374,0.019248,0.052879,0.221038,0.015373,0.076079,0.078313,-0.045735,0.219441,0.029104,0.059285,0.014838,0.136476,0.090361,0.139969,-0.028599,-0.028991,0.066392,-0.162435,0.117394,-0.061926,0.059571,-0.211711,-0.093191,-0.296360,-0.072202,-0.065538,-0.056764,0.039581,0.063647,-0.177901,0.114163,-0.136962,-0.043440,0.032385,0.008826,-0.055310,-0.055075,-0.090730,0.086602,-0.075961,0.006401,-0.276444,0.088640,-0.011739,-0.039605,0.014161,0.044914,-0.176296,-0.087371,0.079905,-0.299139,0.011938,-0.065672,-0.054349,0.146125,-0.248410,0.098977,-0.005970,0.060787,0.100865,0.050444,-0.119626,0.151373,-0.161658,-0.136120,0.099344,-0.001025,-0.185763,0.059219,0.059955,0.139401,-0.267097,0.027811,-0.015721,-0.078052,0.013107,0.009063,0.015053,-0.022201,-0.163676,0.111441,0.070247,-0.364823,0.024210,-0.024666,0.028756,0.087401,0.106259,-0.176585,0.082535,0.053972,-0.048491,0.031726,0.000626,0.047645,-0.066900,0.144428,0.034197,0.048327,-0.105036,-0.012498,0.028762,0.012862,-0.095277,-0.026147,0.068139,-0.256572,-0.338663,0.032162,-0.046750,-0.046630,-0.131840,0.128499,0.052313,-0.080466,0.187435,-0.030483,0.117306,-0.025343,-0.130161,-0.017958,0.095348,0.020206,0.001409,0.100235,-0.149691,-0.145615,0.075539,-0.043461,0.023763,-0.104045,0.058449,-0.057225,0.072013,-0.115212,-0.052389,-0.026655,0.123854,0.074047,-0.004307,-0.066040,-0.010076,0.112273,-0.094579,0.044891,-0.134290,0.122293,0.129333,0.117941,0.119384,-0.198430,0.070331,-0.022858,0.056910,-0.032804,0.052750,0.081792,0.082270,-0.043503,0.154691,-0.032856,0.046373,-0.008635,-0.159316,0.058689,0.030641,-0.157554,0.006779,-0.037242,-0.032497,-0.095811,0.199853,-0.148317,0.119000,0.179142,-0.118225,0.077770,-0.019681,0.272443,0.153113,-0.062367,0.207314,0.056378,0.023728,0.171317,0.085377,-0.513325,0.148209,-0.003476,-0.110849,-0.011267,0.067722,-0.238728,-0.077652,0.104358,0.119860,-0.172686,-0.245387,-0.009867,-0.117581,0.046811,0.013441,0.050060,0.009390,0.004458,0.032878,-0.367308,-0.167591,-0.090526,0.017511,-0.002220,-0.031163,-0.019771,0.032868,0.109962,0.032088,-0.107663,0.019610,-0.067148,-0.030540,-0.113417,0.153342,0.102398,0.239785,-0.056621,-0.135876,0.117853,0.014361,-0.068220,0.052319,0.135910,0.064322,0.037732,-0.193188,0.173035,0.044718,0.017446,-0.232900,0.129625,0.104213,0.080524,0.110273,-0.120436,-0.051695,-0.012375,0.051884,-0.056715,-0.059624,-0.073116,0.110460,-0.049689,0.153234,0.155638,0.205060,0.233374,0.026675,-0.140556,0.253517,0.000309,0.189842,0.180029,0.412377,0.014749,-0.036683,-0.136203,0.026498,-0.094229,0.080570,-0.375649,-0.164114,-0.012922,0.155584,0.017599,-0.133804,-0.016213,0.052087,-0.073472,-0.071263,-0.021470,0.119523,-0.032649,-0.131224,-0.139645,0.000714,0.129217,-0.092289,0.113958,0.047547,-0.105517,0.144245,0.012897,-0.025827,0.156241,-0.031892,-0.022923,0.085518,-0.047901,0.175923,0.058659,-0.134952,-0.065736,-0.145420,0.151018,-0.074032,-0.128808,0.373459,-0.043788,0.124783,-0.006418,-0.098354,-0.020204,0.132245,-0.000402,-0.123612,-0.046327,0.061570,0.148625,-0.028892,0.025727,-0.069026,-0.034606,0.094543,-0.028986,0.108006,-0.038664,-0.043199,-0.013949,0.079785,0.030169,0.106503,-0.074709,0.031951,0.128733,0.017070,0.011568,-0.001141,-0.207434,-0.060452,0.160758,0.106201,-0.044328,-0.091213,0.154864,-0.347433,0.087783,-0.128528,0.096740,0.144230,0.061430,0.161649,0.040148,-0.074541,-0.059892,-0.018313,0.038246,0.234317,0.056313,0.134107,-0.098185,0.063868,-0.105027,0.080044,0.005358,0.158939,0.180045,-0.016140,-0.036842,-0.043058,-0.124060,0.088912,-0.032775,0.058220,-0.164115,-0.122038,-0.185176,-0.042644,-0.076705,-0.082565,0.036510,-0.027075,0.045390,-0.130783,0.131329,0.100142,-0.002973,-0.067565,0.234826,0.044698,0.042209,-0.077161,-0.068523,-0.300102,-0.118610,-0.111266,-0.082790,0.018574,-0.086655,-0.024215,-0.093503,0.065440,-0.004226,-0.050162,-0.093068,0.029754,-0.031506,-0.043583,-0.058477,-0.091708,0.103310,-0.113060,-0.035729,0.051299,0.019688,0.025718,-0.264385,0.184347,0.087467,0.143404,-0.110889,-0.180024,-0.050604,0.025460,-0.160680,0.037231,0.036277,-0.316954,-0.037823,-0.034174,0.068461,0.081659,-0.029052,0.110547,0.143235,-0.055104,0.055975,-0.007767,-0.180665,-0.177794,-0.053344,-0.109106,0.026549,-0.145267,-0.112442,0.106326,0.033883,-0.148681,-0.006385,-0.144014,-0.140117,-0.264572,0.111976,0.019538,0.115452,-0.243328,-0.273076,-0.096702,-0.177178,0.016946,0.248554,-0.243276,-0.129384,0.149270,-0.144827,0.001531,0.030008,-0.091369,0.093688,-0.062966,0.082138,-0.064067,0.013507,-0.135399,-0.010147,-0.023111,0.083818,0.000949,0.015333,0.094208,-0.320921,-0.404861,-0.064292,0.094573,0.063492,0.166373,0.113379,-0.036034,0.081406,0.136145,-0.042831,-0.216440,0.137580,0.037430,-0.114183,0.015402,-0.026652,-0.004904,0.097630,-0.216490,-0.031790,0.033095,-0.124959,0.087637,-0.062231,0.055514,0.120597,-0.159663,-0.059297,-0.189338,0.087917,0.002726,-0.076022,-0.310210,0.021471,-0.237157,-0.056257,0.049131,-0.055722,0.053766,-0.078159,0.007395,-0.100412,0.075406,-0.061769,0.070478,-0.013160,-0.100088,0.163680,-0.074040,0.289253,0.190309,-0.062071,-0.130577,-0.103282,-0.083725,0.093042,0.072351,-0.141345,-0.021362,-0.090060,0.006802,0.060155,-0.011449,-0.065231,-0.018672,-0.048714,0.201131,-0.013945,-0.121997,0.167170,-0.037432,0.091937,-0.042635,0.002401,-0.079411,-0.099611,-0.010667,0.001933,0.005456,0.182479,-0.086663,0.109217,-0.027423,-0.033632,0.065293,-0.011113,0.025376,0.087578,0.179960,-0.131478,-0.006024,-0.040063,0.046358,0.177247,-0.028287,-0.048433,-0.080134,-0.023267,-0.084839,-0.134858,-0.161504,0.133410,0.057921,0.208977,-0.146046,-0.017675,-0.013799,0.162560,0.103175,0.010205,-0.242417,0.163793,-0.006484,0.036843,0.120956,0.063825,0.183062,-0.060344,0.099101,-0.175945,-0.102579,-0.094425,-0.185222,0.097475,-0.144331,-0.084797,0.011241,0.162716,0.001900,0.079349,-0.170640,0.132408,-0.053163,0.131303,0.015553,0.024947,0.091956,-0.117047,0.033600,0.079249,0.128891,-0.013329,-0.068362,0.120671,0.029455,0.064923,0.029194,-0.201970,0.128314,-0.194374,-0.231890,-0.009662,-0.081210,0.083942,-0.087454,-0.072119,0.085216,0.099227,-0.033456,-0.071640,-0.172901,-0.098242,-0.111569,0.133753,-0.060204,0.172825,-0.124353,0.097388,0.088392,0.062599,-0.026228,0.014378,0.103407,-0.066937,0.024078,-0.096522,0.048488,0.017048,-0.150916,0.039835,-0.009596,-0.162903,0.063821,0.015464,-0.201777,-0.165967,0.052849,0.196602,-0.175010,-0.458805,-0.201048,0.776594,-0.182793,-0.431604,-1.833120,0.387581,-0.069548,-0.210854,0.344871,-0.854473,-0.195309,-0.076924,-0.050941,0.132115,-0.279115,0.068900,0.135878,-0.041985,-0.017853,0.212189,0.125318,-0.268102,0.021710,-0.194282,-0.102467,-0.034449,0.045338,-0.202397,-0.003519,-0.212767,0.022570,0.128649,0.133508,0.025703,0.067700,-0.126283,-0.162738,-0.103901,0.237503,0.091968,0.136747,0.000997,-0.092651,0.002111,-0.064252,-0.319343,0.135148,-0.000566,0.043984,-0.123547,-0.181865,-0.092241,0.100880,-0.219936,0.031822,0.045578,-0.137918,0.111459,-0.057982,-0.007372,0.120023,-0.279629,-0.136852,-0.388430,0.126574,-0.048740,0.032825,-0.195271,0.062113,0.019039,0.015801,0.080208,0.024863,-0.138305,0.134118,0.014215,0.170538,0.054557,-0.149663,0.051850,0.015112,-0.296307,-0.142914,-0.009173,0.041507,0.026149,-0.140105,-0.020838,-0.016472,0.132720,0.071837,0.173915,0.026737,0.036231,-0.008462,-0.060082,-0.129748,-0.016976,0.023157,0.006696,0.239482,-0.093448,-0.018984,0.089446,-0.085315,-0.090186,-0.060745,-0.308431,0.174887,-0.438743,-0.349321,0.353257,-0.112909,-0.307169,-0.045972,-0.153272,-0.058674,0.197457,0.083555,0.104637,-0.046673,-0.157751,0.009993,-0.038802,0.049708,0.003673,0.095696,-0.041224,-0.140443,-0.168168,0.193955,0.095950,-0.057115,-0.055232,0.143367,0.081689,-0.213126,0.153011,0.192434,0.070172,-0.021311,0.100066,-0.101502,-0.083151,-0.160625,-0.218347,0.082674,0.121936,-0.148530,-0.211512,0.190843,0.041338,-0.058422,0.092778,0.065039,0.009882,-0.064617,0.107214,0.044094,0.444130,0.227731,-0.036231,-0.426593,0.116084,-0.069365,0.090179,-0.007727,-0.062055,0.035806,0.096004,-0.083969,0.069605,0.117944,-0.189580,0.003305,-0.011582,0.039119,0.002029,-0.104225,0.076629,0.026728,-0.024068,0.146783,-0.109646,0.100345,-0.051580,-0.115786,-0.175886,-0.017456,-0.129600,-0.003919,0.039732,-0.389445,0.029070,0.137285,-0.120381,-0.065333,-0.109260,-0.074063,-0.224806,0.086030,-0.099477,0.087521,-0.033035,0.007557,0.089862,-0.038035,0.074388,-0.118720,-0.028607,-0.110837,-0.008035,0.125934,-0.078367,-0.031252,0.062697,-0.088781,-0.012226,-0.146688,-0.246180,-0.105901,0.082110,0.140363,-0.051101,-0.116077,0.109229,0.024586,-0.003663,0.000940,-0.091276,0.093998,-0.019705,0.155044,0.038442,0.112845,0.137663,-0.020419,-0.361411,0.330282,-0.028883,0.147136,0.101517,0.198723,-0.064869,0.054318,0.101895,-0.003256,-0.107098,-0.179262,-0.164799,-0.031160,0.040007,-0.030745,0.078542,0.169087,-0.139901,0.003776,0.223035,0.052267,0.126661,0.062825,-0.035663,0.285037,0.104630,-0.118148,0.083687,0.001778,0.142911,-0.046946,-0.047849,0.168625,-0.064107,-0.087041,-0.103189,-0.001113,0.135023,0.130854,-0.014580,-0.056528,-0.027802,0.008294,-0.068100,-0.235014,0.033352,0.039819,-0.224337,0.016170,0.130805,0.038177,0.132408,0.169682,-0.021443,-0.141501,-0.091615,-0.117598,-0.081839,0.114412,0.024969,-0.030738,-0.119136,-0.102368,-0.110817,0.098583,-0.140454,-0.087238,0.146664,0.020445,-0.085979,-0.031617,-0.145954,-0.122333,-0.179146,-0.168852,-0.220036,0.112891,0.015022,-0.131296,-0.070603,-0.144596,0.032675,0.213962,-0.203386,0.025573,0.112375,-0.291118,0.132235,0.138639,0.136968,0.063007,0.108410,0.003466,0.120259,0.141069,0.101076,-0.153385,-0.079646,0.041246,0.131974,-0.037774,0.052705,0.030633,-0.173557,0.005921,-0.063169,-0.105482,0.186975,-0.220078,-0.043479,0.072286,0.074884,0.070757,-0.160883,-0.021553,0.306946,0.047604,0.011075,-0.127254,0.038184,0.078869,0.146625,0.087443,0.070326,-0.147524,-0.290191,-0.074935,0.159394,-0.222758,0.010470,0.020512,0.065699,0.132369,-0.062377,0.006517,0.053625,-0.122224,0.073077,-0.032454,0.043305,0.052327,0.001053,0.004747,-0.075279,0.010287,-0.009874,-0.032760,-0.198989,0.096245,0.070529,0.182286,0.050380,-0.016763,0.143844,0.071254,-0.060559,-0.011302,0.002871,0.254397,0.181134,-0.186516,0.098575,-0.022831,0.240805,-0.170400,-0.168992,-0.233813,0.084984,0.055055,0.026248,0.249087,0.012291,-0.062745,0.034501,-0.319657,0.224552,0.047805,-0.075679,0.065251,-0.199590
};

#endif


