//#include "../jedi.h"

#ifndef W7_H_
#define W7_H_

// numpy array shape [15, 10]
/*
input_t w1_3[D_o * N_LAYER_10] = {
        2, 2, 2, 2, 2, 2,2, 2, 2,2, 2, 2,2, 2, 2,
        2, 2, 2, 2, 2, 2,2, 2, 2,2, 2, 2,2, 2, 2,
        2, 2, 2, 2, 2, 2,2, 2, 2,2, 2, 2,2, 2, 2,
        2, 2, 2, 2, 2, 2,2, 2, 2,2, 2, 2,2, 2, 2,
        2, 2, 2, 2, 2, 2,2, 2, 2,2, 2, 2,2, 2, 2,
        2, 2, 2, 2, 2, 2,2, 2, 2,2, 2, 2,2, 2, 2,
        2, 2, 2, 2, 2, 2,2, 2, 2,2, 2, 2,2, 2, 2,
        2, 2, 2, 2, 2, 2,2, 2, 2,2, 2, 2,2, 2, 2,
        2, 2, 2, 2, 2, 2,2, 2, 2,2, 2, 2,2, 2, 2,
        2, 2, 2, 2, 2, 2,2, 2, 2,2, 2, 2,2, 2, 2,
        2, 2, 2, 2, 2, 2,2, 2, 2,2, 2, 2,2, 2, 2,
        2, 2, 2, 2, 2, 2,2, 2, 2,2, 2, 2,2, 2, 2,
        2, 2, 2, 2, 2, 2,2, 2, 2,2, 2, 2,2, 2, 2,
        2, 2, 2, 2, 2, 2,2, 2, 2,2, 2, 2,2, 2, 2,
        2, 2, 2, 2, 2, 2,2, 2, 2,2, 2, 2,2, 2, 2,
        2, 2, 2, 2, 2, 2,2, 2, 2,2, 2, 2,2, 2, 2,
        2, 2, 2, 2, 2, 2,2, 2, 2,2, 2, 2,2, 2, 2,
        2, 2, 2, 2, 2, 2,2, 2, 2,2, 2, 2,2, 2, 2,
        2, 2, 2, 2, 2, 2,2, 2, 2,2, 2, 2,2, 2, 2,
        2, 2, 2, 2, 2, 2,2, 2, 2,2, 2, 2,2, 2, 2
};*/

input_t w7[D_o * N_LAYER_10] = {
-0.004603,0.218085,0.218762,-0.190686,-0.074348,-0.456085,-0.245504,0.036984,-0.255670,-0.030357,0.093667,0.032061,-0.066198,0.233485,0.277686,0.262449,-0.220641,-0.037175,-0.059601,-0.086562,-0.355041,-0.016759,0.004089,0.079298,-0.152220,0.129175,-0.174494,-0.230939,0.024187,0.265003,0.052686,-0.221842,0.183495,-0.280126,0.257142,0.084121,0.198245,-0.068871,0.149890,-0.005177,-0.236463,-0.092410,0.187488,-0.152554,-0.068763,0.145198,0.203600,-0.102680,-0.459627,-0.199821,0.141628,0.188974,-0.195542,-0.048886,0.198745,0.113100,0.063948,-0.978668,0.015109,-0.205882,0.327318,0.154716,-0.041376,0.199822,-0.026459,0.048321,0.144681,0.081542,0.052790,-0.148240,-0.171852,-0.258210,-0.381712,0.115892,0.018502,-0.074681,-0.505289,-0.068075,-0.254328,0.006045,-0.283895,0.398889,-0.190375,-0.256304,-0.733920,0.244080,0.057622,-0.106311,-0.309108,0.409524,0.180051,0.084244,0.149522,-0.114994,-0.222572,-0.114230,-0.109766,-0.175860,-0.383193,0.133618,-0.100258,-0.008727,0.251218,0.046450,0.320811,-0.298819,-0.014576,0.653525,-0.048896,0.065222,-0.168804,0.096731,-0.238660,-0.366081,-0.349119,-0.131455,0.001435,-0.132451,-0.500344,-0.059726,0.154705,-0.018107,0.090715,-0.052222,0.250921,0.199560,-0.497923,-0.350018,-0.320737,0.487987,-0.076542,-0.449044,0.053498,-0.337324,0.045951,-0.459866,0.239284,-0.157145,0.230502,0.102036,0.258181,0.056620,0.208306,-0.040347,0.214402,0.296790,0.028340,-0.017041,0.269920,0.333110,-0.056111,-0.080715,-0.181843,-0.022361,0.029672,0.153949,0.146057,0.172998,0.043990,-0.016817,0.058719,-0.201562,0.007031,-0.067485,-0.035172,0.183649,0.080678,0.005183,-0.031294,0.286442,0.120586,-0.000775,-0.070128,0.044013,0.058172,-1.283907,0.098580,0.132671,0.065922,-0.237484,-0.563895,0.044350,-0.108259,0.047550,0.011801,0.075886,-0.137820,-0.223187,0.068629,-0.026808,0.031887,0.058823,-0.029881,-0.227227,0.003987,-0.234984,-0.008758,-0.196677,0.005590,-0.220061,-0.236464,-0.051912,0.050374,-0.181214,-0.134937,-0.063259,-0.324820,-0.085168,0.038927,-0.173924,-0.091108,0.128414,0.209593,0.015749,-0.096639,-0.181265,0.080918,0.229627,0.079068,-0.000938,-0.051796,-0.001464,-0.250318,0.190661,0.035017,-0.014481,0.081143,-0.119008,0.141863,0.196871,0.187874,-0.031837,-0.136390,-0.030068,-0.055699,0.125864,0.202886,0.235777,0.070614,-0.011763,-0.104286,-0.208816,-0.128215,-0.158289,0.125776,0.290893,0.137975,0.104850,-0.022909,0.014927,-0.159745,0.378376,-0.095974,0.215203,0.031698,0.105857,-0.058498,-1.590724,0.046547,0.097534,0.124279,0.264076,0.247817,0.292481,-0.118515,-0.148172,0.192699,0.181329,-0.256171,0.132748,0.230490,-0.657645,-0.276645,-0.229133,-0.121348,-0.291698,0.221580,0.217751,0.092602,0.149201,0.051388,-0.076510,0.127146,-0.226824,-0.835790,-0.079809,0.440492,-0.046508,0.030774,0.111329,-0.100295,-0.346007,-0.143010,-0.139597,-0.283219,-0.337497,-0.229374,0.067713,0.066017,-0.028061,0.351471,-0.094017,0.037500,0.008704,-0.406052,-0.300894,-0.169031,-0.027584,-0.099312,0.222152,0.001498,0.219392,-0.071255,-0.048405,0.135957,-0.102437,-0.124269,-0.391271,0.213162,0.004466,0.129023,-0.083472,0.007098,-0.290881,-0.103848,0.057325,-0.024018,-0.252949,-0.111090,0.216271,0.044605,0.056580,0.323497,-0.072786,-0.076611,-0.116396,-0.124066,0.096749,-0.009074,0.116701,-0.408891,0.258246,0.238342,-0.243989,0.245304,0.242428,0.117527,0.066451,0.142553,0.129467,-0.029766,0.041464,0.167367,-0.098232,-0.311467,0.106904,-0.231925,0.124448,0.066013,0.067712,-0.421606,-0.128691,-0.283118,0.099429,0.104859,0.053204,0.129193,-0.014431,-0.148144,-0.214993,0.255847,0.187947,-0.309796,-0.002501,0.192781,0.011148,0.065639,0.118504,-0.122067,-0.015168,0.040969,0.111118,-0.118626,-0.004187,-0.014858,0.152599,-0.184873,-0.070944,-0.111640,-0.006705,0.042624,-0.111781,-0.186296,-0.334762,-0.125267,-0.075178,-0.156843,-0.050847,0.102134,-0.083844,0.206685,0.181840,-0.174279,0.079248,0.013137,0.241200,-0.144637,-0.035142,0.052524,0.398986,-0.330342,-0.206912,-0.230683,-0.107789,0.115058,0.061012,-0.092648,-0.374317,0.126318,0.017852,-0.117735,-0.052709,-0.280018,-0.364434,-0.175875,0.054410,-0.300914,0.253205,-0.078938,-0.227501,-0.040426,0.048004,0.404189,-0.071893,0.019196,0.262471,-0.387885,-0.031675,-0.043589,0.041325,-0.182557,0.197190,-0.158083,-0.170562,-0.122337,-0.185848,-0.207572,0.233662,0.289092,-0.000468,0.079445,-0.024071,-0.600893,-0.136598,0.111370,-0.129753,-0.322322,-0.431774,-0.062725,0.261778,0.089899,-0.284331,0.018045,0.186269,0.041744,0.122959,-0.019543,0.059555,-0.026156,0.187162,-0.286963,-0.221522,-0.305733,0.000192,-0.050561,0.004066,0.405438,0.205046,0.337604,-0.218523,-0.084640,-0.392057,-0.116322,0.235571,-0.500560,-0.178397,0.215466,0.346218,0.059177,-0.664923,0.354865,-0.135708,0.063438,0.088990,-0.190322,-0.073524,-0.180765,-0.095766,0.011414,-0.370435,0.042224,-0.080463,0.140512,0.093534,-0.307443,-0.381414,0.138176,0.086355,-0.132260,0.207399,-0.020085,0.135053,0.157315,-0.254504,-0.263648,-0.000913,0.043076,0.041297,0.258698,0.293315,-0.162181,-0.063923,-0.239085,0.066961,-0.324004,0.018037,-0.086967,0.010402,-0.341921,-0.117083,0.081122,-0.019812,0.028366,0.181668,-0.037580,0.264639,-0.008017,0.358169,0.101251,0.034593,0.161181,-0.195777,0.238757,-0.124066,0.153913,0.093224,0.021994,-0.405506,0.053192,0.269548,-0.002448,0.284990,-0.363819,-0.019327,0.151629,0.123655,0.053638,0.179806,-0.089073,-0.036801,0.167789,-0.139502,-0.047784,-0.329672,-0.247587,0.240510,0.073685,0.016900,-0.332787,-0.335853,0.149134,-0.049361,-0.024426,0.084443,-0.076635,0.332124,-0.129919,0.168539,0.029403,-0.455965,-0.051187,-0.214046,-0.012425,0.299153,-1.664781,-0.095748,0.133948,-0.313054,-0.091725,-0.242690,0.058154,0.211416,-0.293733,0.102217,-0.552201,-0.330557,-0.548951,0.119204,-0.021546,0.132024,0.205866,-0.310895,0.038625,-0.092513,-1.008113,-0.483294,0.186706,0.040316,-1.578244,-0.386730,-0.020449,-0.212169,-0.017016,0.175349,-0.313165,0.158724,-0.034954,-0.130364,0.236229,-0.113840,0.086267,0.176185,-0.370791,-0.260401,-0.184195,-0.175759,0.133928,-0.288257,0.195122,0.061768,-0.012287,0.142597,-0.212424,0.067459,0.077870,-0.187072,0.244555,-0.149263,-0.273824,-0.010830,-0.920521,0.237544,-0.262988,-0.042401,0.099931,0.111541,0.199497,-0.022656,-1.084620,0.198626,-0.068332,-0.086970,-0.161285,0.126901,0.130820,0.106509,-0.187970,-0.151328,0.093364,-0.137956,-0.075755,-0.012163,-0.248884,0.241369,0.222907,0.151570,-0.257305,0.016140,0.051667,0.358452,-0.271302,0.166395,0.060227,0.079413,0.272503,-0.397877,0.121468,0.238140,-0.037441,-0.216440,-0.330950,0.187173,0.006910,0.344206,-0.709022,-0.153917,-0.161640,0.049792,0.170157,-0.161729,-0.034525,0.140039,0.374300,-0.246438,0.152006,-0.305336,0.099613,-0.036454,-0.048230,0.163657
};

#endif


