//#include "../jedi.h"

#ifndef W8_H_
#define W8_H_

// numpy array shape [15, 10]
/*
input_t w2_3[N_LAYER_10 * N_LAYER_12] = {
        1, 1, 1, 1, 1, 1,1, 1, 1,1, 1, 1,1, 1, 1,
        1, 1, 1, 1, 1, 1,1, 1, 1,1, 1, 1,1, 1, 1,
        1, 1, 1, 1, 1, 1,1, 1, 1,1, 1, 1,1, 1, 1,
        1, 1, 1, 1, 1, 1,1, 1, 1,1, 1, 1,1, 1, 1,
        1, 1, 1, 1, 1, 1,1, 1, 1,1, 1, 1,1, 1, 1,
        1, 1, 1, 1, 1, 1,1, 1, 1,1, 1, 1,1, 1, 1,
        1, 1, 1, 1, 1, 1,1, 1, 1,1, 1, 1,1, 1, 1,
        1, 1, 1, 1, 1, 1,1, 1, 1,1, 1, 1,1, 1, 1,
        1, 1, 1, 1, 1, 1,1, 1, 1,1, 1, 1,1, 1, 1,
        1, 1, 1, 1, 1, 1,1, 1, 1,1, 1, 1,1, 1, 1,
        1, 1, 1, 1, 1, 1,1, 1, 1,1, 1, 1,1, 1, 1,
        1, 1, 1, 1, 1, 1,1, 1, 1,1, 1, 1,1, 1, 1,
        1, 1, 1, 1, 1, 1,1, 1, 1,1, 1, 1,1, 1, 1,
        1, 1, 1, 1, 1, 1,1, 1, 1,1, 1, 1,1, 1, 1,
        1, 1, 1, 1, 1, 1,1, 1, 1,1, 1, 1,1, 1, 1,
        1, 1, 1, 1, 1, 1,1, 1, 1,1, 1, 1,1, 1, 1,
        1, 1, 1, 1, 1, 1,1, 1, 1,1, 1, 1,1, 1, 1,
        1, 1, 1, 1, 1, 1,1, 1, 1,1, 1, 1,1, 1, 1,
        1, 1, 1, 1, 1, 1,1, 1, 1,1, 1, 1,1, 1, 1,
        1, 1, 1, 1, 1, 1,1, 1, 1,1, 1, 1,1, 1, 1,
        1, 1, 1, 1, 1, 1,1, 1, 1,1, 1, 1,1, 1, 1,
        1, 1, 1, 1, 1, 1,1, 1, 1,1, 1, 1,1, 1, 1,
        1, 1, 1, 1, 1, 1,1, 1, 1,1, 1, 1,1, 1, 1,
        1, 1, 1, 1, 1, 1,1, 1, 1,1, 1, 1,1, 1, 1,
        1, 1, 1, 1, 1, 1,1, 1, 1,1, 1, 1,1, 1, 1,
        1, 1, 1, 1, 1, 1,1, 1, 1,1, 1, 1,1, 1, 1,
        1, 1, 1, 1, 1, 1,1, 1, 1,1, 1, 1,1, 1, 1,
        1, 1, 1, 1, 1, 1,1, 1, 1,1, 1, 1,1, 1, 1,
        1, 1, 1, 1, 1, 1,1, 1, 1,1, 1, 1,1, 1, 1,
        1, 1, 1, 1, 1, 1,1, 1, 1,1, 1, 1,1, 1, 1
};*/

input_t w8[N_LAYER_10 * N_LAYER_12] = {
-0.051609,-0.213931,0.126669,-0.135531,0.074659,0.130732,-0.082218,0.046980,0.112829,-0.183699,0.036708,0.112026,0.129755,0.225928,0.063520,-0.379231,-0.051139,0.002650,0.057360,-0.140576,-0.048179,0.025235,-0.094896,-0.189528,0.263856,0.105421,-0.376624,-0.148932,-0.183206,-0.011187,0.128713,-0.347952,-0.102640,-0.084350,0.099039,0.107090,0.031877,-0.172781,-0.086256,0.068431,-0.005158,0.059935,0.151357,-0.040486,-0.127294,0.139101,-0.087821,-0.098103,-0.040970,0.032141,-0.235425,-0.222409,-0.302674,0.049985,-0.124078,0.107074,0.350990,0.227221,0.113623,0.041515,-0.009104,0.112608,0.055614,-0.408005,0.235704,0.015134,0.004532,0.120362,-0.006091,0.123474,-0.088189,-0.071613,-0.030341,0.127737,0.071596,-0.123448,0.202495,-0.054389,0.130517,0.043726,0.005729,0.075951,0.075669,-0.158557,0.169969,-0.007429,-0.014902,-0.086840,0.122424,-0.089667,-0.098098,-0.075170,-0.183645,0.283846,0.083608,-0.067394,-0.148850,0.142366,0.236310,-0.076680,0.109156,0.078479,0.106791,0.128448,-0.134759,0.044927,-0.044538,-0.305121,0.069341,0.053456,-0.166209,-0.234035,0.029904,0.025009,0.044922,-0.172766,-0.092289,-0.003959,-0.179415,0.091343,0.025483,-0.103995,0.091131,0.155204,0.036990,0.194809,-0.182798,0.000018,-0.075773,-0.171311,-0.045800,-0.156419,0.301070,-0.100511,-0.158629,0.075304,0.033390,-0.268268,-0.164553,0.025501,-0.009732,0.064873,-0.144325,-0.157040,-0.181261,0.009194,-0.283666,0.028778,0.217768,-0.028944,-0.163691,-0.005819,0.157785,0.156731,-0.164360,0.008338,-0.043344,0.041945,0.089719,-0.071368,-0.197982,-0.300880,0.120159,0.058325,-0.029671,-0.156330,-0.094034,-0.093976,0.189949,0.059568,0.077722,-0.060116,0.044019,0.181854,-0.015864,-0.244891,0.195980,0.225019,0.115332,0.186368,-0.063140,0.021540,-0.126483,0.048450,0.093238,-0.054510,-0.062373,0.481215,0.156073,-0.149256,-0.129540,-0.016135,-0.071256,0.150987,-0.010787,-0.496241,-0.051830,0.045978,0.047228,-0.053440,0.279129,-0.283129,-0.142772,-0.067795,0.124308,-0.124363,-0.016895,0.125783,0.240891,0.005360,0.066481,-0.345036,-0.173822,0.271163,0.015485,-0.009345,0.207850,-0.025469,-0.020564,-0.041735,0.103971,-0.183519,-0.110324,-0.059156,-0.051826,-0.024878,0.098991,0.058485,-0.292847,0.156537,0.115978,-0.190912,-0.112835,-0.006348,-0.218197,-0.008545,0.022615,-0.061917,0.060331,-0.213081,0.068318,0.052030,-0.048498,0.038458,-0.119277,-0.124153,-0.016565,-0.066884,-0.025309,0.078408,-0.209999,0.159995,0.066907,-0.028382,-0.161883,0.043954,0.049704,0.023189,-0.132879,-0.074472,-0.034905,-0.057009,-0.007928,0.175950,-0.041390,0.028904,-0.157456,-0.202868,0.302705,0.176007,-0.084972,-0.112408,0.093423,0.188204,-0.071295,0.003265,-0.254900,-0.254804,-0.058427,-0.053559,-0.125814,0.100285,0.236279,-0.029512,0.083412,0.169719,-0.111162,-0.178300,0.029633,0.185843,-0.037842,0.021095,0.140716,-0.035362,0.076931,0.138135,0.035919,-0.233746,-0.123803,0.120180,-0.040056,-0.000909,0.088084,-0.330206,-0.067048,-0.011049,-0.022576,0.025455,0.263765,0.109540,-0.072987,-0.035003,-0.119892,0.235687,-0.076782,-0.094734,0.089999,0.175503,-0.118817,0.096405,0.125118,-0.088088,0.095524,0.095578,-0.001150,-0.099074,0.020660,-0.300647,0.037391,0.133309,0.246468,0.052200,0.044372,-0.134413,0.084343,0.094686,-0.142348,-0.006832,-0.059981,0.022800,0.064506,-0.049094,-0.119019,0.130104,-0.078508,0.088067,0.204932,0.132023,0.142690,-0.030715,-0.145578,-0.012351,0.315906,-0.002257,0.012436,0.171757,-0.078360,-0.063607,-0.085857,0.079046,0.102460,0.102603,0.045163,0.087314,-0.168557,0.064086,0.007766,-0.278468,-0.057730,-0.031431,-0.071128,-0.042353,0.332294,-0.071630,-0.021842,-0.239160,-0.138387,0.102266,-0.214514,-0.083175,0.108512,-0.130551,-0.019028,0.108798,-0.080143,-0.094382,-0.019668,-0.009791,-0.006964,-0.161444,-0.040577,-0.255849,-0.073954,0.098416,-0.004970,0.002033,0.093201,-0.067340,-0.102188,0.037176,-0.020330,-0.196924,0.010202,-0.172646,-0.031074,-0.013661,-0.050620,-0.001426,-0.006099,0.120909,-0.118821,-0.305867,-0.063370,0.085073,-0.043562,0.033028,0.132106,-0.069825,0.039507,-0.066577,0.145700,-0.025396,0.053351,-0.046200,-0.173091,0.091402,0.111958,0.089847,-0.022103,0.054139,-0.040270,-0.028378,0.139100,0.283891,-0.071351,-0.095826,-0.601699,-0.047346,0.221889,-0.196759,-0.128618,0.069774,-0.025479,0.089206,-0.049914,-0.001371,-0.439770,-0.051625,0.040944,-0.155273,-0.040100,-0.052667,0.175998,0.002293,-0.091959,-0.194482,0.141341,0.009825,-0.104169,0.042822,0.115051,0.004340,0.130144,-0.419959,0.060802,-0.077460,0.035213,-0.174302,0.148847,-0.131305,0.003546,0.134126,-0.073687,-0.062031,0.046420,0.092845,0.037729,-0.143226,0.132498,-0.053682,0.010811,0.079762,0.111500,0.002763,-0.016323,0.091322,0.014560,-0.106118,-0.278056,0.069949,0.108471,0.217511,0.055449,0.175787,-0.038587,0.051682,0.059691,0.003249,0.042658,0.040213,-0.008917,0.075977,-0.017750,0.062825,-0.035730,-0.052261,0.069925,-0.027308,-0.151075,-0.097530,-0.012581,-0.098033,0.032764,0.073341,0.056116,-0.178840,-0.297589,0.104050,-0.137799,0.192184,-0.280793,0.099295,0.173695,0.033867,-0.047352,0.063651,0.226760,0.032604,0.093343,0.039168,0.068804,0.124702,0.003567,0.042418,-0.115841,0.013471,0.028378,0.121167,0.001647,-0.078213,-0.003613,-0.136107,-0.123736,0.146450,0.029449,-0.167873,-0.125311,0.031583,-0.227338,-0.008049,-0.139358,0.205530,-0.052848,0.177038,-0.116642,0.015667,0.041697,0.080534,-0.040107,-0.052463,-0.198380,-0.098159,0.035020,-0.032614,-0.059724,-0.065733,-0.165783,-0.080781,0.141252,0.254604,0.117591,0.059581,-0.000395,0.113371,-0.153448,-0.010641,0.015065,-0.007293,-0.026866,-0.043451,-0.079154,-0.139033,-0.067865,0.042806,0.020734,0.128820,-0.540861,-0.027100,-0.080425,-0.020663,-0.081045,-0.072071,0.069917,0.081998,0.058484,-0.129079,-0.107160,-0.108314,-0.340153,-0.587294,0.044063,-0.081998,-0.033857,-0.094925,0.021893,-0.105382,-0.057828,-0.130479,0.008828,-0.061409,-0.101127,-0.041880,-0.110616,-0.011010,-0.126464,0.058575,-0.026683,0.135583,-0.047913,-0.123120,-0.044729,0.077695,0.067441,0.126606,-0.265984,0.101045,0.178593,-0.172440,0.534606,-0.251226,0.153290,0.271904,0.069240,0.189799,0.164951,0.082717,-0.192772,0.225711,-0.365725,0.450647,0.209015,-0.062398,0.432674,0.067414,-0.135578,-0.318906,0.033538,0.097328,0.236986,0.109293,-0.130073,0.173577,-0.055341,-0.067889,0.210356,0.101680,-0.001334,0.053551,-0.183003,0.036695,-0.136008,-0.096958,0.011558,0.030246,-0.063486,0.117181,0.090818,-0.239021,-0.061966,-0.422529,-0.058395,0.002609,0.053184,0.164207,-0.121132,0.106740,-0.211651,-0.133244,-0.280932,-0.158253,0.085269,-0.236403,0.171889,0.020979,0.023104,0.047996,-0.024956,-0.425389,0.005129,0.039249,-0.056043,0.056376,-0.282386,-0.015022,-0.169161,0.082342,-0.185559,0.040607,-0.073224,0.024683,-0.042341,0.179658,0.021243,0.137399,0.055232,-0.000863,0.049448,-0.055763,-0.110814,0.013465,-0.003417,-0.043951,0.153406,0.180421,-0.029634,-0.086551,-0.179995,-0.149809,0.065226,-0.229222,-0.129684,-0.108215,0.106605,0.114597,0.032433,0.024808,-0.137993,-0.450779,-0.222600,-0.460960,-0.062864,0.037949,0.220847,0.032564,-0.085819,0.162368,0.132388,-0.301747,-0.170285,0.160075,0.014960,-0.051564,-0.093940,0.085426,-0.005940,-0.077720,0.060543,-0.092605,0.184969,-0.100481,0.141504,0.011646,-0.266190,0.009078,-0.336732,0.069097,0.131685,0.320461,-0.068013,0.063100,0.171759,-0.289258,-0.090863,-0.573145,0.201100,0.010557,0.119327,0.161553,-0.080341,-0.077671,0.155089,0.009351,-0.076398,0.170841,-0.041090,-0.252306,-0.144749,0.024507,-0.047273,0.232006,0.036807,-0.069655,0.049122,-0.259591,0.173264,0.065563,-0.099667,0.104073,0.051920,0.160899,-0.061386,0.222923,0.009407,0.045558,0.159754,0.074696,-0.022157,-0.027068,-0.095646,0.025267,0.202196,-0.268658,-0.264534,-0.318936,0.222354,-0.113834,0.095328,-0.051111,-0.024165,-0.017426,0.124279,-0.060218,0.094735,0.239592,0.192621,-0.551082,-0.022263,0.199160,0.012621,-0.190602,-0.012835,0.009377,-0.048282,-0.147584,0.105443,-0.061514,-0.001668,-0.091552,-0.192458,0.212703,-0.106321,-0.025132,-0.156735,0.061573,0.027249,-0.204539,0.238719,-0.008732,0.082161,-0.648739,-0.016128,0.062282,-0.550313,0.035045,-0.052001,-0.014233,0.071901,-0.009564,-0.048999,-0.051416,-0.221041,0.025970,-0.022688,0.002767,-0.111130,-0.068452,0.058739,0.148474,-0.109089,0.063546,0.063391,-0.164561,-0.047487,0.180489,0.004822,-0.156278,0.021111,0.020789,0.227653,0.231724,0.025276,-0.114071,-0.072051,-0.027839,0.140334,-0.001331,-0.108900,0.056493,-0.187666,0.045233,0.144198,-0.082825,-0.116354,0.061081,0.122780,0.137742,-0.129948,0.179668,0.097310,0.139672,0.219401,-0.029049,-0.040186,-0.160886,0.049184,0.121722,-0.126673,-0.080939,-0.181715,-0.176813,-0.166845,-0.109689,-0.057195,-0.138692,0.082972,-0.115700,0.046742,-0.027604,0.130777,0.057448,-0.115287,-0.092445,-0.082642,0.109835,0.047748,-0.092817,-0.060134,0.002175,0.016002,-0.104962,0.121840,-0.044975,0.095405,0.087349,-0.149908,0.048387,0.107969,-0.130979,0.127062,0.158240,0.054977,0.172572,0.170448,0.109740,-0.054784,0.053486,0.032859,0.099340,-0.024849,0.003844,0.049802,0.262434,-0.025982,0.273885,-0.172184,-0.029598,-0.004670,-0.054107,0.001826,0.019953,0.100839,0.126621,-0.369906,0.443787,-0.064523,0.222730,0.061073,0.189346,0.033703,-0.116310,0.010805,-0.087037,-0.047033,-0.156732,0.002085,-0.243139,0.060974,0.108391,0.063348,-0.083461,-0.006215,-0.126234,-0.108365,0.215135,-0.120994,-0.048227,0.207869,-0.058790,-0.095875,0.253465,0.066900,0.074331,-0.122086,-0.033089,0.201348,0.117527,-0.055769,-0.008694,0.135472,-0.048769,-0.023800,0.143438,-0.005571,-0.064182,-0.107161,0.000337,-0.074758,0.154326,-0.026231,-0.081880,-0.189386,-0.209023,0.123212,-0.094834,0.057549,-0.238923,-0.140489,0.215044,-0.009154,-0.205423,-0.046608,0.041108,-0.237384,-0.027995,-0.120364,-0.243122,0.120726,-0.044250,0.188026,0.016090,-0.295098,-0.187796,-0.295553,0.093430,-0.110778,-0.142101,0.067478,0.296871,-0.058333,-0.040163,0.058827,0.022510,0.019793,-0.035620,0.030287,-0.036704,0.056632,0.074711,0.311070,-0.219762,-0.081730,0.064614,-0.002292,-0.102861,-0.018961,-0.002625,-0.084980,0.026497,-0.218131,0.049121,0.090555,0.150544,-0.164450,-0.071955,-0.173141,0.281116,0.055309,-0.057531,-0.004478,0.085917,0.026028,0.332960,-0.014531,-0.036619,0.038469,-0.002833,-0.002895,-0.042466,0.097770,-0.014902,0.085398,0.020829,0.023379,-0.093659,0.117598,0.037363,0.018089,0.080608,0.077889,-0.153093,-0.066217,0.044145,0.054163,0.083414,0.023738,-0.037197,-0.194340,-0.100012,-0.034669,0.054937,-0.066609,-0.068873,-0.258242,0.355778,0.225269,0.105789,0.074916,0.158650,0.049192,-0.187695,0.101558,-0.289080,-0.478675,-0.090292,-0.541176,0.043235,-0.032574,0.195645,-0.064274,0.002170,0.200744,-0.115631,-0.183978,-0.534274,0.340097,0.064237,0.031587,0.067186,0.206444,0.182050,0.078338,-0.024394,-0.058033,-0.140344,0.052181,-0.048841,0.066779,0.123003,0.230620,-0.240623,-0.148321,0.064835,-0.011966,-0.003633,0.000617,0.100966,-0.129424,0.103971,-0.601145,0.059826,0.033889,-0.098246,0.101352,-0.224666,-0.111313,-0.080179,-0.006295,0.141129,0.064835,-0.024059,0.079771,-0.105023,-0.192891,-0.155756,-0.579740,0.065340,0.231310,0.011244,-0.020278,-0.175328,0.130305,-0.152743,-0.337624,-0.597901,0.202169,0.073506,-0.030260,0.022605,-0.081474,0.177789,0.055957,0.024098,0.111152,0.011021,0.060486,0.169024,0.129728,0.059921,0.116781,-0.176351,0.081815,-0.036883,-0.207050,-0.275812,-0.083618,0.135497,-0.042801,-0.048796,-0.118243,0.148739,0.129342,0.061814,-0.074169,-0.177171,-0.016971,0.123169,0.147546,0.258077,-0.044762,0.053500,0.263652,0.018736,-0.079172,-0.108387,0.302535,-0.061730,-0.095024,0.000684,0.276118,0.073617,0.046559,-0.040900,-0.031866,0.252849,-0.122297,0.181911,0.146927,0.032230,0.040754,-0.151561,0.074366,0.050245,-0.330956,0.013535,-0.278831,0.184339,0.137424,-0.047529,0.195437,-0.082914,0.009322,0.173258,0.076209,-0.024196,-0.033775,0.041738,0.071627,0.005682,-0.132877,0.033539,-0.088066,-0.068918,-0.015277,-0.116772,0.214132,0.177128,0.146187,-0.070519,-0.331312,0.146302

};



#endif


