//#include "../jedi.h"

#ifndef W9_H_
#define W9_H_

// numpy array shape [15, 10]
/*
input_t w3_3[N_LAYER_12 * N_OUTPUT_3] = {
        2, 1, 1, 1, 1, 1,1, 1, 1,1, 1, 1,1, 1, 1,
        2, 1, 1, 1, 1, 1,1, 1, 1,1, 1, 1,1, 1, 1,
        2, 1, 1, 1, 1, 1,1, 1, 1,1, 1, 1,1, 1, 1,
        2, 1, 1, 1, 1, 1,1, 1, 1,1, 1, 1,1, 1, 1,
        2, 1, 1, 1, 1, 1,1, 1, 1,1, 1, 1,1, 1, 1
};*/
input_t w9[N_LAYER_12 * N_OUTPUT_3] = {
0.168757,-0.038273,-0.181397,0.056083,-0.043464,-0.311663,-0.232968,0.285375,0.263550,-0.232189,0.128570,0.144633,-0.555413,0.434236,0.120961,0.110789,0.281993,-0.153433,-0.555332,0.041712,0.186998,0.191872,-0.483725,0.296176,0.032002,-0.126914,0.100403,-0.139020,-0.062271,0.090006,-0.196335,-0.203851,0.212082,-0.223743,0.247030,0.021340,-0.041180,-0.255026,0.012976,-0.382424,0.085544,-0.059451,-0.117536,-0.090484,-0.026850,-0.012760,-0.064326,0.010468,0.075368,-0.245984,0.063346,0.124069,0.113507,-0.291807,-0.028047,0.156629,0.176357,-0.214979,-0.041497,0.179410,-0.192646,-0.202456,0.272166,0.182753,-0.192983,0.014791,0.022037,0.376057,-0.616945,0.018052,-0.017427,0.060919,-0.397570,0.185769,-0.226491,0.014550,0.056560,0.167476,0.075358,-0.280842,0.135002,-0.121108,-0.025064,-0.139141,-0.010103,0.049816,0.016195,-0.059697,-0.174819,0.204934,0.174331,0.152322,0.009948,0.087792,-0.354067,-0.179750,-0.040450,0.134281,0.138520,-0.151931,-0.028078,-0.137031,0.132139,0.100604,0.111284,-0.241603,0.003528,0.130612,0.116085,0.041926,-0.235935,0.089230,-0.023644,0.083638,-0.203046,-0.248032,-0.020044,0.252988,0.172621,-0.196955,0.154544,-0.091592,-0.082231,-0.159285,-0.065027
};
#endif


