//#include "../jedi.h"

#ifndef W4_H_
#define W4_H_


input_t w4[(P + D_e) * N_LAYER_6] = {

-0.030392,-0.037424,-0.006432,-0.014805,0.003038,-0.001230,0.005458,-0.022005,0.004246,0.003468,0.006825,-0.004028,-0.004483,-0.080069,0.107479,0.040478,-0.009879,-0.003445,0.009836,-0.004263,0.035904,0.115347,-0.005347,0.002746,-0.014233,-0.004031,-0.000983,0.019051,-0.004290,-0.016435,0.003506,0.017451,-0.025911,-0.033694,0.010765,-0.012875,-0.022790,0.013078,0.009877,-0.013935,-0.006610,0.021986,-0.004490,-0.022397,0.018177,-0.083154,0.060983,-0.004710,0.016993,0.015594,-0.033445,0.042334,0.005311,-0.168370,-0.007960,0.031762,-0.024177,0.022401,-0.024674,0.005032,-0.034876,-0.027518,-0.016822,-0.022523,0.022793,0.270810,0.019047,-0.020532,-0.026624,0.019778,0.021835,0.048839,0.089474,-0.021362,0.020356,0.026267,0.016841,0.011518,0.090389,-0.175720,0.045635,-0.023922,0.007233,0.031245,-0.059463,0.086495,-0.088709,0.004269,-0.014177,0.011829,0.018511,-0.001104,0.047862,-0.036679,0.022448,0.044684,-0.053145,0.120993,0.310970,0.006368,0.006793,-0.168199,-0.102783,0.195055,-0.163624,-0.062120,0.050412,-0.099010,0.166359,0.186589,-1.811350,-0.226167,-0.143645,-0.225917,0.071457,-0.082626,0.062185,-0.312859,-0.228804,-0.201383,0.046987,-0.055061,0.050176,-0.074234,0.175033,0.158908,-0.007953,-0.243914,-0.454565,0.149832,0.544843,0.586836,-0.964437,-0.558543,-0.105654,-0.615750,0.233642,-0.061669,0.744098,0.488692,-0.065863,0.634767,-2.463786,0.175386,-0.773322,0.463787,-1.887083,-0.223959,0.892988,-0.099556,-0.452566,-1.888760,-0.602511,-0.307161,0.102469,-0.451120,-0.300405,-0.708079,-0.392043,0.008500,0.020505,-0.146915,0.064040,-0.278576,-0.209113,-0.298615,-0.054497,0.149357,0.042065,-0.003336,0.278363,-0.278091,0.303602,0.061851,-2.957804,-0.248857,-0.150074,-0.150245,0.480724,0.015540,0.165813,-0.018467,-0.569788,-0.108788,0.097975,0.009214,-0.147538,0.157955,0.009181,0.090100,0.095579,-0.566234,-0.245614,0.160356,0.543579,0.697210,-0.782562,-0.668287,-0.271629,-0.831940,0.350331,-0.079325,0.382394,0.507371,0.156421,0.516195,-2.703288,0.144886,-0.541613,0.350956,-1.880341,0.386870,0.864760,-0.111497,0.032140,-1.902984,-0.452317,-0.749794,0.479608,-0.258365,-0.752125,-0.705525,0.239523,0.379397,-0.156176,0.588602,0.156037,-0.078272,0.333542,-0.044504,0.214379,-0.064855,0.351489,0.254237,-0.140827,0.027396,0.037857,-0.080648,0.370649,0.786667,0.077822,0.001812,0.003051,-0.393563,-0.174139,0.107192,0.118974,-0.140100,0.066011,-0.406415,0.204364,0.044480,-0.080674,-0.064920,0.018119,-0.018343,0.153888,-0.322061,-0.105591,0.429497,-0.061048,0.013747,0.099773,0.858957,-0.418242,0.012923,-0.285359,-0.365296,-0.337547,-0.180494,0.410130,-0.158490,0.230586,0.460998,-0.213196,-0.171348,-0.084229,-0.734394,-0.479912,-0.178453,0.268601,0.204773,0.106182,0.293569,0.042969,0.057895,0.031200,-0.094412,0.384382,0.754253,-0.198199,0.698489,-0.068892,-0.733530,-0.167679,-0.528738,0.816793,-0.957606,0.021290,0.747253,0.005588,0.173072,0.258773,0.175613,0.017791,-1.115414,0.274837,-0.172232,0.026362,-0.205887,-0.221968,0.563837,-0.248284,-0.425699,0.624638,0.493121,-0.566996,-0.406330,0.710076,0.144207,0.070206,0.122145,-0.082598,0.058134,0.000888,-0.004946,-0.067318,-0.048916,-0.218571,-0.031461,0.057727,0.048643,-0.033861,0.087031,0.023613,0.074027,0.016965,-0.021079,0.040087,-0.114968,0.036356,-0.056662,-0.136312,0.057870,0.094993,0.069873,-0.047932,-0.216198,0.079250,0.084515,0.013140,-0.022904,-0.062318,0.715645,-0.138651,0.158889,0.521997,-0.047930,-0.311368,-0.211617,0.189367,0.108373,-0.034654,0.086881,0.000047,-0.222358,-0.062840,-0.160545,0.402471,-0.032928,-0.087186,0.319360,0.630344,-0.008101,-0.142758,0.496579,0.109708,0.192987,0.744998,-0.312632,-0.026906,-0.085312,0.110776,0.074337,0.146116,0.888667,-0.292762,-0.220155,-0.567346,-3.720964,-4.454438,1.429685,2.519624,-0.391060,0.627463,0.818131,0.730471,0.151412,0.035585,0.626129,-2.121912,-0.543453,0.610339,3.929318,0.175403,2.229446,3.056492,1.309089,-0.164677,-5.495555,3.340878,15.283261,-2.124955,-0.211820,2.468946,1.334964,3.002589,-0.763130,-3.637057,-0.096076,-1.155608,3.339762,4.406811,-2.670169,1.067392,-3.107044,0.713001,4.038682,-3.851131,0.196333,-0.932281,-0.414819,0.899066,-4.176309,0.454322,-7.496485,-0.693577,-3.821243,-3.990321,1.698805,2.365681,6.100339,-2.193317,1.961606,2.044530,-2.466075,-2.512079,0.488769,0.199071,0.362138,-0.147980,-0.277989,0.289557,-0.119224,0.086293,0.084166,0.385145,-0.101087,0.051082,-0.004399,-0.219794,0.146205,-0.070383,0.379572,-0.253874,-0.367789,-0.097001,-0.110218,0.177100,-0.067236,0.221317,-0.170443,-0.140155,-0.222007,0.093368,0.004825,-0.015509,0.044920,-0.010153,0.103639,0.039121,0.700526,-0.324377,1.022685,0.085081,-0.682368,-0.192006,-0.636872,1.147511,-0.807980,0.198370,1.006133,0.140792,0.370899,0.186320,0.350377,-0.216103,-1.286027,-0.042875,0.087128,-0.018367,-0.067045,0.090322,0.398201,-0.371845,-0.398252,0.760256,0.535602,-0.359740,-0.444572,0.738894,0.154569,0.170110,-0.229405,-0.035066,0.168034,-1.851954,-0.322960,-0.322790,0.060465,0.162426,0.220738,-0.017560,-0.108333,0.175944,-0.149190,-0.180281,-0.046754,-0.109761,0.088950,-0.210654,0.311859,0.138991,0.109700,0.014500,0.104792,-0.135575,-0.384140,0.351349,0.264822,-0.450008,0.089480,0.344193,-0.318602,0.103001,-0.156445,0.063634,0.035186,0.092086,0.049647,0.061999,0.111609,0.298786,-0.054198,0.023876,0.052203,0.094246,0.244262,0.001301,-0.204210,0.156066,-0.076179,0.015443,0.136659,-0.162280,-0.086968,0.008218,0.046954,-0.045656,0.013490,0.061891,-0.033845,0.122361,-0.140289,0.094940,0.076328,0.221929,-0.285572,-0.056501,-0.823759,-0.317632,-0.056167,-0.177603,0.106778,0.126217,-0.148080,0.106635,0.512776,-0.051098,-0.046193,0.194443,0.040316,-0.010529,-0.133535,0.021026,-0.114425,-0.281914,-0.036214,-0.283826,0.370950,0.283208,0.016639,0.156693,0.096115,-0.048341,0.016368,-0.295210,0.237224,-0.054520,-0.095983,-0.093033,-0.168601,-0.007278,0.008860,0.069542,-0.077825,0.049036,-0.073832,0.038495,0.133825,-0.094366,-0.197872,-0.065391,0.041511,0.015322,0.039864,-0.073608,-0.106893,0.057500,0.018072,0.043674,-0.050359,-0.010320,-0.012946,-0.020105,0.035708,0.057393,0.063140,-0.019524,0.251593,-0.032167,-0.006962,-0.025671,-0.597720,0.607594,0.030081,-0.027625,-0.428530,0.108734,0.015602,-0.020659,0.017404,-0.015036,-0.057954,0.948348,-0.297980,0.192332,0.057639,0.417087,0.105913,-0.312775,-0.049077,-0.138494,0.682216,0.054807,0.089057,0.207942,0.015487,0.200136,0.020680,0.125869,-0.156529,-0.187901,0.140059,0.063110,-0.043311,-0.318780,-0.128536,-0.105850,-0.243753,0.366520,-0.296168,-0.060747,-0.042408,-0.183563,0.094791,0.122296,0.217935,0.351349,-0.158639,0.060624,-0.368884,0.313275,0.350388,0.113122,-0.108284,-0.305033,-0.959723,0.041540,0.032374,-0.030108,-0.046333,-0.212242,0.093195,0.006481,-0.011665,-0.040958,0.008917,-0.046993,-0.261804,-0.134633,-0.040195,-0.355287,0.182358,0.020710,0.034035,0.217128,-0.036027,0.033454,-0.040514,-0.150555,0.078346,-0.004294,-0.051525,-0.086751,-0.128659,-0.003416,0.099945,0.033863,-0.206795,-0.080332,-1.491038,0.078821,0.071457,-0.131102,0.044912,-0.033987,0.078379,0.059026,0.021025,0.085006,-0.310140,-0.187132,-0.229472,0.181067,-0.020160,-0.048694,-0.017925,0.007176,0.007270,0.051936,0.107538,0.025295,-0.026701,0.008471,0.433068,0.071962,0.100150,0.013925,0.020673,0.011089,-1.152951,0.013547,0.096960,-0.036971,-0.026561,0.015035,0.013269,-0.245504,-0.058781,0.090308,0.086166,0.045204,0.027888,0.143001,0.132844,-0.055132,0.030777,0.092065,-0.148987,0.066399,-0.583770,-0.256671,-0.097657,0.037826,0.038943,-0.035355,0.100837,-0.039182,-0.250426,-0.491244,-0.407539,-0.188102,-0.038052,-0.017327,0.153097,-0.060507,-0.108405,0.130690,-0.029346,-0.056264,0.060790,-0.029477,0.208632,0.020979,0.181577,0.110899,-0.275536,-0.102330,0.000228,-0.020684,-0.079365,-0.061318,-0.122697,-0.275863,0.039505,0.080677,0.094383,-4.436730,-0.010449,-0.115137,-0.048763,0.052508,-0.109584,0.019278,0.177669,-0.154163,-0.092979,0.043539,-0.148485,-0.082488,-0.109185,-0.105852,0.130930,0.044628,-0.072169,-0.219683,-0.330528,-0.060224,-0.001840,0.188867,-0.189685,-0.067160,-0.124818,-0.200345,0.042245,0.096955,0.197531,0.286403,-0.051081,0.074577,-0.085141,0.302767,0.259113,0.158316,-0.160490,-0.316615,-1.434704,0.139674,0.032618,-0.019930,-0.051108,0.073078,0.016534,0.225550,0.136036,-0.146865,0.149289,0.103696,0.029091,-0.037586,-0.084132,0.058426,-0.048927,-0.005800,0.113763,-0.150461,0.063642,-0.127843,0.255771,0.014210,-0.058090,0.088616,-0.168148,0.105685,0.010471,-0.013170,-0.061258,0.108305,-0.006902,0.046593,-0.071569,0.255989,0.150213,0.047479,0.040113


};

#endif


