//#include "../jedi.h"

#ifndef W8_H_
#define W8_H_


input_t w8[N_LAYER_10 * N_LAYER_12] = {
-0.089806,-0.073243,0.212546,-0.592662,-0.190786,-0.007567,0.131444,-0.386283,0.561982,0.294413,-0.043257,-0.642193,0.172262,0.139018,0.405153,-0.054133,-0.114534,-0.007790,-0.562197,-0.007806,-0.121618,0.047991,-0.157312,0.095692,-0.091744,0.196433,0.115708,-0.117630,0.192404,-0.205205,-0.024762,0.115851,0.201793,-0.209716,0.330783,-0.227497,0.056487,0.040856,-0.209434,0.051236,0.261062,0.041810,-0.076017,-0.330737,-0.078052,0.039739,-0.151503,0.023712,0.160063,0.009398,-0.085444,-0.057395,-0.003405,0.333213,0.322493,-0.141513,0.127192,-0.031373,-0.124979,-0.067057,0.078050,0.154339,-0.093185,-0.000132,-0.249660,0.121877,0.333111,-0.616916,0.090115,0.246164,-0.036730,-0.221497,0.553297,0.481235,-0.211675,-0.291064,0.163800,0.233588,0.155111,-0.057656,0.029447,0.015699,-0.145008,0.078329,0.050103,-0.004795,-0.462879,0.515775,-0.159311,0.406906,0.205453,0.011288,0.270435,-0.154340,0.019117,-0.067834,0.034550,0.117698,0.224627,-0.720300,-0.293188,0.087120,0.133474,-0.236336,0.760867,0.240731,-0.385512,-0.485793,0.064817,0.206171,-0.047381,-0.221725,0.321496,-0.105601,0.163427,-0.083495,0.153650,0.092536,0.026145,0.048400,0.333799,-0.334214,0.006252,-0.050250,-0.003493,0.066938,0.099995,-0.303639,0.026513,0.211661,0.153645,-0.041560,-0.150828,-0.079633,0.058190,-0.307256,-0.088162,-0.373012,-0.452480,0.081544,-0.635243,0.189585,-0.005761,0.263978,0.130084,-0.241699,0.391562,0.007079,-0.222629,-0.121047,-0.227547,0.310779,-0.011898,0.131960,0.006052,0.040892,0.147586,-0.045169,-0.324040,0.112258,-0.690714,0.011840,-1.374735,-0.027650,-0.047069,0.035307,-0.083524,0.020504,-0.428607,0.307970,0.294730,-0.093862,0.212364,-0.333023,0.173077,0.175484,-0.144058,0.062186,-0.203384,-0.193888,-0.315222,0.069051,-0.127560,-0.038966,0.118161,0.015562,-0.030234,-0.192963,0.033221,-0.076448,-0.100450,0.200626,0.474778,-0.120710,0.495326,-0.101399,-0.228257,0.036230,-0.239985,0.003584,0.554962,0.194527,0.324571,0.164957,0.455496,-0.321122,0.206317,-0.077291,0.033765,0.136679,0.233742,-0.660190,-0.314439,-0.028396,-0.023856,-0.098903,0.872079,0.320050,-0.087320,-0.570313,0.301225,0.217229,-0.028190,-0.098734,-0.034936,-0.255005,-0.134087,-0.126519,0.043884,0.461276,-0.007069,-0.145135,0.147590,0.105594,-0.021986,-0.161134,0.028102,0.137037,0.091894,0.212512,-0.030516,-0.073919,-0.117387,-0.012515,0.068031,-0.010905,0.193423,-0.708442,0.031726,0.207291,0.116843,0.045685,0.323291,-0.205321,-0.059209,0.021711,0.028728,-0.162860,-0.048600,0.022279,0.169452,-0.269318,-0.132165,0.013821,-0.115564,-0.332734,-0.100366,0.032644,-0.161054,0.161810,-0.045464,-0.079048,-0.217919,0.043331,0.359871,-0.784173,-0.232083,-0.200652,-0.244268,-0.272499,0.942517,0.419161,0.124156,-0.555763,0.137687,0.128978,0.112064,-0.284137,-0.268790,-0.023492,-0.124586,-0.036333,-0.087783,0.073577,0.052868,-0.068568,-0.520276,0.011365,0.021503,0.037317,-0.325861,-0.026882,-0.176388,-0.060522,0.161022,0.181961,0.256443,-0.679415,-0.023791,0.149786,-0.039646,0.323249,0.644327,0.230210,0.042223,-0.613930,0.161482,-0.074506,-0.066311,-0.039978,0.011541,-0.044342,-0.759919,0.017291,0.072256,-0.071687,0.121353,0.097661,0.080061,-0.050679,0.106838,0.068616,0.171923,0.061570,-0.192217,-0.038319,0.063017,-0.093552,0.238655,0.084926,0.022647,-0.075937,0.160936,-0.098712,-0.186087,-0.693508,-0.405622,0.138528,-0.336792,0.466232,-0.114781,0.141560,-0.022448,-0.109728,0.072689,-0.813695,-0.340184,0.044588,-0.163385,-0.123853,0.904528,0.153865,-0.006233,-0.367409,0.203153,0.120219,0.233549,0.049369,-0.047357,0.234943,-0.109035,-0.327820,0.052106,0.238415,-0.248340,0.008602,-0.110947,0.064961,0.081405,-0.307114,0.011776,0.179949,0.122756,0.288457,-0.010049,-0.177837,0.108574,-0.078131,0.143727,-0.055769,-0.372514,0.071362,-0.135272,-0.001199,-0.020110,0.008903,-0.012521,-0.189738,0.205801,-0.093821,0.042033,0.033802,-0.311567,-0.012726,-0.121845,-0.005172,0.072870,-0.086588,0.104857,-0.169984,-0.344830,0.047060,-0.458505,0.159814,0.056812,0.083972,-0.257114,0.106028,0.369428,-0.775647,-0.518472,-0.082766,-0.205054,-0.235150,0.883965,0.268732,0.056460,-0.329303,0.089211,0.228099,0.161090,0.010503,-0.020836,-0.091402,-0.411002,-0.040652,0.067666,0.084672,-0.079164,-0.306939,0.079144,-0.026411,-0.175944,-0.082488,0.060710,0.212240,-0.071068,-0.118913,-0.125171,-0.049208,-0.342960,-0.227295,-0.303610,0.050994,-0.103934,-0.092104,-0.179215,0.040499,0.128548,-0.171112,0.059729,-0.037597,0.054569,-0.123935,-0.264816,0.108984,0.185938,-0.590376,-0.129927,0.048256,-0.113058,-0.406112,0.777959,0.257446,0.020361,-0.558760,0.062470,0.078525,0.197448,-0.052887,0.542382,-0.122646,0.014607,-0.060436,-0.145639,0.020419,-0.103206,-0.012952,0.369197,-0.166571,-0.464330,-0.009439,-0.014189,0.428761,0.087312,-0.043233,0.104524,0.057202,-0.257628,0.101603,-0.010596,-0.053931,-0.008893,0.416819,-0.033740,0.131916,0.333724,0.048462,0.105982,-0.092596,-0.010210,0.048986

};



#endif


