//#include "../jedi.h"

#ifndef W4_H_
#define W4_H_


input_t w4[(P + D_e) * N_LAYER_6] = {
-0.000135,0.138724,-0.015675,0.010695,-0.003247,0.010805,0.005789,0.000575,-0.000124,-0.009373,-0.001578,0.000399,-0.008500,-0.001249,0.051109,-0.004150,-0.000574,-0.013219,-0.006624,0.005182,0.008022,-0.005877,-0.006333,0.000615,0.004644,-0.003759,0.007079,-0.002717,-0.001475,-0.000479,-0.005569,-0.009654,-0.016561,-0.046091,0.001402,-0.004633,-0.002177,0.009383,-0.022304,-0.002816,-0.000864,0.015325,-0.001193,0.004013,0.005984,0.063593,-0.007267,-0.005293,-0.000190,-0.055032,-0.010711,-0.001615,-0.003363,-0.009172,0.003326,-0.001487,0.001248,-0.038708,-0.004669,-0.012918,-0.007555,0.001285,0.012264,0.000933,0.001622,0.016519,-0.003640,0.002421,0.007079,-0.002828,-0.012342,-0.007090,0.000899,-0.060332,0.036893,-0.003664,-0.009762,-0.007600,0.000871,-0.002427,0.021364,0.027817,0.008255,0.001505,0.003061,0.002935,-0.022934,0.001284,-0.000179,0.023925,-0.006523,0.004986,0.001184,0.047526,0.001297,0.004882,0.002332,0.013912,-0.042551,-0.014254,-0.000541,-0.001917,0.001567,0.000704,-0.001383,-0.061519,0.002772,0.000587,-0.009025,-0.000435,-0.067391,-0.005562,0.002492,0.153747,-0.010724,0.005224,-0.009174,0.005338,-0.005656,-0.022631,0.001928,-0.000728,0.001594,0.007533,-0.007533,0.013750,0.009456,-0.007806,-0.086153,0.104027,-0.017602,0.005934,-0.009547,-0.017437,-0.003894,-0.008649,0.004901,-0.005823,0.001822,0.004803,0.000305,-0.253698,0.000209,0.011421,-0.015198,-0.346857,-0.113120,-0.026152,-0.007636,0.056701,0.016940,0.034441,-0.032115,-0.053200,0.055456,0.032147,0.000714,0.013401,-0.088672,-0.008771,0.094569,-0.130746,0.068457,-0.064429,-0.090697,0.007019,-0.078055,-0.231689,0.018958,0.064741,-0.014762,0.153760,0.028292,0.125565,-0.001906,-0.042975,-0.005435,-0.275762,-0.186715,0.000903,0.062096,0.020331,0.068464,0.060161,0.025361,-0.138106,0.116060,-0.008103,0.039272,-1.158102,-0.065802,0.021138,0.173799,0.028340,-0.752279,-0.102758,-0.324449,0.605385,0.070541,-0.331165,0.417837,0.528855,-0.000204,-0.076095,0.381163,-0.487680,0.595776,0.305617,0.001870,0.045598,0.829598,-0.405171,0.597082,-1.163603,-1.312523,-0.800311,-0.592230,0.399836,-1.028955,0.018394,0.606668,0.374311,-0.257471,0.704102,0.251142,-0.866320,-0.142931,0.322753,-0.133857,0.295253,0.687226,0.183701,-0.114884,-1.068693,-0.245092,0.444138,-0.797943,-1.465027,0.494827,1.301947,0.067456,0.225742,0.066358,0.163894,-0.064132,-0.314710,0.055933,0.060358,-0.028955,-0.653926,-0.030211,-0.243235,-0.406072,0.124979,-0.571936,0.062390,-0.032156,-0.086279,0.225252,0.058224,0.092375,0.184519,0.026874,-0.261101,0.180469,0.029562,-0.121712,-0.160946,0.083321,0.007450,0.135757,0.015269,-0.654332,-1.414142,0.266212,0.183002,0.010700,-0.680177,-0.493852,-0.005605,0.138779,-0.004641,0.047277,0.222184,0.144079,-1.634219,0.256462,-0.809412,0.683333,-0.156050,-0.662567,-0.383930,0.131352,0.766066,-0.304006,-0.161155,0.056311,0.321266,0.279167,0.119532,0.581354,0.128883,0.526735,-0.299294,0.515561,0.072423,0.084731,-0.357776,-0.061656,-0.850336,-0.968335,-0.487326,-0.178158,0.371896,-0.574542,0.520178,0.200837,0.247908,-0.041885,0.233818,0.331493,-1.319235,0.242566,-0.191241,-0.142748,0.340228,0.687052,-0.437185,0.287581,-1.018391,0.158569,0.026483,-0.243788,-1.377133,-0.124484,1.072037,0.000542,0.045912,0.065358,0.066278,0.143946,-0.111374,-0.019409,0.270329,0.081212,0.173939,-0.008570,-0.016668,-0.172597,-0.000640,-0.063475,0.029588,-0.021641,0.585964,0.095069,-0.129344,0.202770,-0.176003,-0.034091,0.018902,0.483020,-0.901690,0.033979,0.031722,0.155827,-0.188108,0.039219,0.271808,0.098244,-0.236885,0.140663,0.029491,-0.003716,0.057399,-0.080725,0.098144,0.087476,0.020449,-0.116782,-0.011130,0.070858,-0.197967,0.019995,-0.003168,-0.209932,0.433355,0.034752,-0.131018,0.172234,-0.143701,-0.241517,-0.046013,-0.019932,0.234677,0.112397,-0.301159,0.046187,-0.070033,-0.311116,0.158753,0.214464,0.595741,-0.205674,0.028485,0.089972,-0.514918,-0.520923,0.248178,0.289541,1.089560,-0.434714,0.088678,-0.687563,0.907733,-0.353629,-0.088906,-0.198336,-0.398786,0.359392,0.094595,0.025290,0.277548,-0.438136,0.066816,0.131017,0.323184,0.100873,0.639705,-0.004165,0.115940,0.253921,0.005059,-3.974370,-0.863203,-0.489622,0.768861,1.050673,0.408099,1.403623,-0.004081,-0.883319,1.892495,0.196815,1.820401,-0.758194,-0.558946,-0.733960,0.065841,0.678514,-1.655318,-1.006448,-3.831510,0.667077,1.403751,2.637372,0.192832,-0.221450,0.404386,-0.469156,1.949915,-0.624571,-0.193057,-0.882959,-0.040309,0.783064,-0.196506,-0.379663,0.070057,0.790612,0.963781,1.922208,1.493609,0.005028,0.224098,-1.522985,-0.636339,-3.338072,-3.346488,-1.649429,-0.051590,0.001544,0.065094,0.016236,-0.032674,0.008481,0.007947,0.014975,0.051388,0.033212,0.047248,0.040553,-0.006103,-0.001499,-0.045778,-0.067872,0.017389,-0.019281,-0.086242,0.069482,-0.013501,-0.037549,0.028171,-0.042674,0.035315,-0.136341,0.522224,-0.114303,0.048761,0.026552,0.385362,0.013163,-0.004761,-0.080777,0.032217,-0.068803,-0.005878,0.008811,-0.016311,-0.011133,0.008434,0.009655,-0.011895,0.039234,-0.027788,-0.055514,0.095927,-0.035031,-0.028795,-0.002138,-0.868912,-0.203637,0.325297,0.067867,0.682130,0.105700,-0.117720,-0.071865,0.389540,-0.052878,-0.331431,-0.820114,0.266214,0.648826,-0.168578,-0.267537,0.459821,-0.141942,0.069929,-0.323979,-0.059264,0.160390,-0.134600,-0.322059,-0.416176,0.375711,-0.509328,0.344922,-0.096585,0.166879,0.106301,0.234569,-0.164291,-0.854622,-0.006774,-0.317596,0.097789,-0.255175,0.002203,0.166749,-0.435246,-1.297427,0.272157,-0.590266,-0.186609,-0.072833,-0.343866,5.507563,0.419716,2.695883,1.598530,5.516387,-1.476219,-2.733767,16.397419,-0.288404,-0.991241,4.734066,2.311714,-1.562317,10.471433,-1.046516,-2.122517,2.687250,-0.378871,-0.878164,0.143287,-3.422590,0.405693,-1.117414,1.972987,16.643429,-1.087659,-0.804469,2.738745,-1.433316,2.363823,1.528164,-1.961266,-0.914369,-0.135831,1.947230,-2.702691,-2.494554,-0.942703,0.569106,-3.520507,4.883415,3.136003,4.985623,-1.669138,11.865783,-0.924262,-0.072498,-3.772720,1.570087,0.110124,-1.184732,-1.255203,-2.006104,-1.124076,-2.200332,-0.853797,3.831351,0.041974,-2.429632,-4.328789,-2.032831,-8.808878,-0.288386,5.659419,-3.707237,-2.386970,3.810450,4.015751,2.851085,-1.630501,0.512499,2.127626,3.632577,1.185712,1.450182,-3.703109,4.291669,-1.698132,-4.269498,3.417504,1.934752,0.650226,-1.469855,2.854786,-4.333494,0.350456,-0.334427,4.588452,-7.234344,-0.535600,-5.230688,2.714198,-5.865396,-1.292719,3.713385,0.670759,-0.030831,-0.204349,-0.024225,-0.022337,-0.076434,0.088458,-0.222003,0.135063,0.061996,-0.070297,0.188245,-0.002576,0.113565,0.048870,0.049295,-0.104139,0.247085,0.108073,-0.002995,0.031408,0.061486,-0.158484,0.144392,-0.016646,0.685545,-0.705319,-0.005687,-0.069150,0.092200,-0.559430,-0.010088,0.055256,-0.106011,0.157088,-0.000062,-0.065980,0.155628,-0.034394,0.095557,0.105815,0.084392,0.000038,0.083942,-0.016567,0.074608,-0.234676,0.078499,0.110329,-3.786960,-1.144862,-0.540144,0.633617,1.075305,0.228920,1.467017,-0.038584,-0.880453,1.822328,0.418086,1.995165,-0.758370,-0.777240,-0.928643,-0.146088,0.786839,-1.514471,-1.058765,-3.758142,0.431480,1.100091,2.727387,0.471691,0.085432,0.366148,-0.299319,1.634593,-0.688338,-0.453694,-0.793734,0.171623,1.032009,-0.262750,-0.615418,0.124836,0.579074,1.259182,1.592393,1.366981,0.036157,-0.002921,-1.465493,-0.540746,-3.076330,-3.441530,-1.744828,-0.059892,0.126365,-0.374722,-0.229459,-0.231654,-0.173991,0.018412,0.108945,-0.084804,0.301585,0.161183,-0.004273,0.114294,-0.067731,0.147497,-0.147716,-0.113097,-0.204267,0.115915,-0.285311,-0.449123,-0.327840,-0.109872,-0.065914,0.172194,-0.813780,0.080665,-0.860494,-0.011756,-0.860266,0.129726,-0.112543,0.337430,0.120023,0.063018,-0.100153,-0.102503,-0.002862,-0.080287,-0.109040,-0.800359,0.012950,-0.132697,-0.071174,0.177357,-0.137159,0.118735,-0.535557,-0.042943,-0.006898,-0.205628,0.178160,0.039971,-0.116825,0.159540,-0.097126,-2.139571,0.102621,0.067966,-0.057170,-0.008013,0.103538,-0.026136,0.229857,0.090548,-0.131332,0.274516,-0.262201,0.126294,-0.050000,0.130234,0.192600,0.094983,-0.225678,-0.093375,0.080665,-0.156782,0.133316,-0.149057,0.275529,0.041514,0.228640,0.243729,0.039192,-0.060842,-0.122646,0.119525,0.234245,-0.088714,0.071120,0.240883,0.112713,-0.035098,-0.008204,0.092602,0.197268,0.046902,-0.119983,0.082647,-0.381649,0.136508,-0.077602,-0.068689,0.329793,-0.038922,-0.101894,0.539976,-0.091754,-0.112587,0.007363,0.036035,-0.949612,-0.110636,0.116325,0.428194,0.023935,0.275437,0.116075,-0.147088,0.906526,-0.304133,0.105686,-0.065391,0.124896,-0.257267,-0.062725,0.197349,0.001990,0.110659,0.234084,0.020830,0.172552,-0.100718,-0.128181,0.071951,0.177202,0.218666,0.043363,0.077141,-0.068329,0.021596,0.136088,0.110203,0.067166,-0.150110,-0.238753,0.433574,-0.135575,0.075343,-0.137248,0.105172,0.053744,-0.225922,-0.017597,-0.256555,-1.083594,0.047903,-0.032639,0.080972,0.293991,0.101193,-0.490878,-0.154234,-0.075466,0.171907,-0.148267,0.143724,-0.062115,-0.078485,0.760813,0.124100,0.097896,0.072661,0.097137,-0.664216,-0.162713,-0.341560,-0.109126,-0.158175,-0.035778,0.022792,0.011034,0.060372,-0.091245,-0.064100,-0.311078,-0.175598,-0.456666,0.027487,0.189671,0.063656,0.127994,-0.030585,-0.027229,-0.216050,-0.100453,0.024641,0.067479,0.023995,0.080963,-0.086269,0.095838,0.175375,-0.149575,0.020232,-0.075256,0.001705,0.029219,0.146410,-0.109577,0.008417,0.109057,-0.042724,0.255814,-0.083182,-0.135525,-0.095066,-0.008248,-0.363996,0.005563,0.018206,0.191602,-0.251223,-0.179575,0.227682,-0.199384,0.240766,-0.023733,0.192928,-0.145554,-0.087921,-0.640968,0.200418,-0.074584,-0.050399,-0.220397,-0.081153,-0.045020,-0.867318,0.207237,-0.128996,-0.131971,-0.078530,-0.043425,0.072792,0.143169,-0.114161,0.152626,-2.691142,-0.213210,-0.213116,-0.343142,0.149823,-0.124951,-0.149502,-0.083059,0.086632,-0.101376,-0.072833,0.088150,-0.102600,-0.179955,0.215802,0.164964,-0.026617,-0.412306,0.164911,0.238659,0.036682,-0.331651,-0.324697,-0.032143,-0.010113,-0.127534,-0.188373,0.102954,-0.060531,-0.081572,0.165585,0.057000,0.039854,-0.118770,0.055831,-0.168684,0.016923,0.052213,-0.080161,-0.092423,-0.095502,0.169295,0.011553,-0.144877,-0.015576,0.188267,0.045311,-0.180677,-2.692722,-0.231136,-0.131897,-0.114209,-0.011726,0.078831,-0.126285,0.011452,0.036848,0.008510,0.163833,-0.014689,0.084357,-0.242858,0.255328,0.078811,0.099096,-0.473453,-0.225610,-0.092243,0.027413,-0.091118,-0.068443,0.082965,-0.196695,0.147918,0.023458,0.032422,-0.091278,0.187703,0.153871,-0.109770,-0.002571,0.002790,0.057062,-0.186308,-0.041970,-0.043916,0.181127,0.183977,-0.202116,-0.110655,-0.052224,0.110382,-0.176925,0.268790,0.251295,-0.077970,0.144610,-0.054197,0.317642,0.208505,-0.185709,0.033464,0.094431,0.070674,-0.224461,0.255446,0.024321,-0.131671,0.073626,-0.152042,-0.280620,-0.162045,-0.367378,0.164613,-0.114830,-0.276310,-0.002668,-0.294182,0.149347,0.156228,0.020615,-0.130422,-0.112894,0.028409,-0.168090,0.085902,0.037911,0.093452,-0.121265,0.166481,-0.089851,0.057221,-0.218486,0.005821,0.165049,-0.195141,0.234578,0.027095,0.181867,0.164738,0.111691,-0.375222,-0.226160,-7.574197,-0.576743,0.042168,-0.422892,0.126927,-0.069941,-0.826610,0.094393,0.338597,0.280017,-0.166021,-0.455024,0.058410,-0.133293,0.029540,0.023456,-0.994602,0.117120,0.244910,-0.215049,0.364561,0.042821,0.070084,-0.249361,-0.043880,-0.389532,-0.028693,-0.034151,-0.124788,0.271102,0.156701,0.079124,-0.323495,0.147878,-3.766757,-0.048952,0.104451,0.639344,-4.048095,0.256030,0.125090,0.243322,0.015202,-0.076516,0.109188,0.127123,-0.087762,-0.139584,0.064200,-0.006063,0.097176,0.032317,0.090279,0.001903,0.069085,-0.166916,0.010153,0.155134,0.112848,-0.187970,0.092588,0.043934,0.013550,-0.011045,0.073326,0.241998,-0.718820,-0.241993,0.157698,0.030100,-0.093097,-0.337010,-0.148617,-0.154218,0.107335,-0.107605,-0.044521,0.209583,0.189744,0.038099,-0.036727,0.033483,-0.068166,0.100730,0.133868,0.083659,-0.302423,-0.087088,-0.090837,0.085694,0.010988,0.200051,0.089630,-0.022485,0.194195,0.163701,-0.194950,0.217456,0.248997,-0.091179,0.219614,0.237569,0.061726,0.081164,-0.047063,-0.027383,0.136688,-0.288404,-0.070148,-0.042098,0.187223,-0.023268,-0.334387,-0.100823,0.371226,0.332046,-0.313137,0.052765,0.252058,0.327068,0.042579,0.193490,-0.108134,0.229711,0.038442,-0.177901,-0.218967,-0.238077,0.092202,-0.222216,0.136642,-0.151998,-0.062705,0.036348,-0.620329,-0.157196,-0.055904,0.155361,0.010620,0.165522,0.039210,-0.251649,-0.374769,0.059152,-0.011905,-0.159619,-0.177778,-0.053399,0.353883,0.040221,0.133796,0.152023,-0.032702,0.052265,-0.004916,-0.219652,-0.248590,0.005970,-0.272359,-0.273404,0.039637,-0.120967,0.124254,0.107592,0.066212,-0.054885,-0.202355,0.119246,-0.218262,0.000561,-0.247507,0.269089,-0.072952,-0.025768,0.082616,-0.165630,-0.043844,-0.102919,-0.121911,-0.108938,-0.107076,-0.257987,-0.029703,-0.267579,-0.080833,0.129020
};

#endif


