//#include "../jedi.h"

#ifndef W7_H_
#define W7_H_


input_t w7[D_o * N_LAYER_10] = {
-0.086922,0.086810,-0.106912,-0.142142,-0.024324,0.341214,0.025244,0.054087,0.032947,0.319314,0.030434,-0.013641,0.041996,0.074355,-0.074738,0.236375,-0.156012,-0.260825,0.107838,-0.584182,0.141587,0.113120,-0.255365,0.115444,-0.090679,-0.291741,-0.010162,-0.414761,0.198385,-0.041271,-0.073498,0.232848,-0.182196,0.030019,-0.143128,0.041793,0.024783,-0.199230,0.096122,0.103412,0.078760,0.132467,-0.045840,0.202430,-0.237549,-0.042073,-0.684886,-0.151220,-0.228156,0.177498,0.075947,-0.238080,-0.120461,0.014764,0.121378,0.002973,-0.349589,-0.312239,0.120791,-0.139085,0.265860,-0.009919,0.087101,-0.113854,0.060859,-0.452419,-0.139097,0.040175,-0.016137,0.060126,-0.160028,-0.016105,-0.639849,-0.162957,-0.071040,-0.082733,0.194355,0.034143,0.059634,0.047847,-0.004389,-0.096267,-0.007141,-0.087877,-0.007027,-0.043342,-0.251762,-0.051990,-0.136315,-0.153319,-0.095654,-0.025950,0.054095,-0.222370,-0.006143,-0.299753,0.037900,0.127685,-0.068779,0.111946,0.109409,-0.185924,0.194249,0.224581,0.023885,-0.074499,-0.288024,0.043993,0.070333,-0.117094,0.182204,-0.032179,0.213508,-0.169866,-0.309196,0.097889,0.192461,-0.026933,-0.274947,-0.094341,-0.010033,0.282528,-0.039067,0.231776,0.026071,0.100315,0.220045,-0.018059,0.168040,0.289845,0.207806,0.229292,-0.227345,0.190057,-0.149771,0.001675,0.020840,0.063597,0.042663,-0.066609,0.038667,-0.211432,0.078073,-0.303007,-0.065223,-0.173469,-0.692964,0.101292,-0.006720,-0.184184,0.193595,0.160609,0.016124,-0.009168,-0.165160,-0.010381,-0.019727,-0.023056,0.094632,-0.034618,0.282988,-0.364698,-0.458203,0.168120,0.148062,0.153817,-0.113166,-0.186891,0.012683,0.366432,-0.002076,0.380215,-0.117619,-0.068903,0.073644,0.037293,0.130688,0.309017,0.006302,0.099897,-0.047602,0.218452,-0.433830,-0.501218,-0.012518,0.112569,-0.031754,0.260039,0.181860,-0.113333,0.096391,-0.205145,0.336663,-0.037302,0.040776,0.268841,0.287275,-0.175495,-0.005903,-0.265030,-0.041378,0.079351,-0.449344,0.042400,0.018269,0.183022,0.054336,0.131726,-0.123162,-0.085939,-0.088367,0.118690,-1.089286,-0.047264,-0.202844,-0.296045,-0.091671,0.163934,0.125917,0.030933,0.120003,-0.229495,-0.069571,-0.196115,-0.034864,0.081808,-0.127811,-0.149726,0.288314,0.164262,0.105297,-0.137134,-0.117142,0.139555,-0.036706,-0.126621,-0.132674,0.187777,-0.195883,-0.288445,-0.536758,0.165620,0.372434,-0.348285,-0.442963,0.204812,-0.053905,-0.104795,-0.033681,0.005032,-0.027028,-0.353849,-0.003324,-0.005207,-0.352901,-0.065765,0.296239,-0.415160,0.059887,-0.414920,-0.106150,-0.328994,-0.177285,0.131369,0.083764,-0.077069,0.015148,0.139511,-0.573015,0.053348,0.087963,0.020881,0.196772,-0.145590,0.175854,-0.096713,-0.089278,0.029839,0.238437,0.082414,0.117074,-0.013973,0.126309,-0.365763,0.125018,0.024075,0.086993,0.001519,0.032985,0.218907,-0.079560,-0.011271,-0.027033,0.092895,-0.152350,-2.713577,0.320841,0.082873,0.166353,0.232307,0.047636,-0.043622,-0.434001,0.059136,0.178305,-0.052362,-0.043722,-0.070769,-1.577827,0.011982,-0.383078,0.185411,0.010341,-0.021587,0.039619,0.112439,-0.109719,-0.279869,-0.210566,-0.650044,0.128265,-0.145730,-0.216171,-0.293413,-0.099801,0.025185,0.010824,-1.018755,0.146408,-0.113366,0.183923,0.014136,-0.163677,0.173718,0.149218,0.031301,0.161478,0.269071,-0.038995,0.022382,0.080799,-0.220420,-1.210323,0.110648,-0.053844,-0.166890,-0.282839,0.106084,-0.142844,0.038602,0.346072,0.153269,-0.238562,-0.187311,0.259295,0.097264,0.360672,0.212983,-0.126129,0.061719,0.194977,0.158949,0.044143,-0.076530,-0.057549,0.054450,0.071672,0.003277,0.093004,-0.290678,0.037950,-0.086013,0.074314,-0.067482,-0.156334,0.013919,-0.044762,-0.083599,-0.050682,-0.237651,0.111725,0.105778,0.042283,-0.324304,-0.022070,-0.107988,-0.067471,0.139318,-0.055815,-0.207208,-0.013249,-0.014245,0.253870,-0.084224,-0.225446,-0.084909,-0.552356,-0.057955,-0.197588,0.095466,-0.091094,-0.420582,-0.021986,0.368722,-0.097798,0.256972,0.193531,0.092650,0.209145,0.259321,0.353356,0.203595,-0.052664,0.255572,-0.046007,0.040715,0.102711,-0.063852,0.284901,0.186328,-0.125116,0.038885,0.016169,0.151539,0.133342,0.000581,0.023785,0.238009,0.314607,-0.028886,0.029659,-0.267659,-0.037927,-0.073742,-0.177108,-0.408564,-0.040335,0.070615,-0.370601,0.012503,0.153641,-0.368020,0.330282,0.459337,-0.155666,0.050327,0.014336,-0.188239,-0.038092,-0.303539,0.137957,-0.090932,-0.053358,0.159614,-0.064457,-0.423357,0.089100,-0.323358,-0.018141,-0.172456,-0.227128,-0.106955,0.089228,-0.051051,-0.500192,0.027559,0.029532,0.085830,0.024667,-0.102388,-0.468553,-0.293559,-0.185337,0.041549,-2.078828,-0.020057,-0.062267,0.029475,-0.266162,-0.038091,-0.216447,-0.119378,-0.054936,-0.189763,-0.123672,-0.032582,-0.066177,0.015987,-0.110403,-0.149147,-0.075561,-0.102933,-0.103029,0.289091,0.134592,-0.062296,0.019953,-0.231482,0.256217,-0.082923,-0.117671,-0.135881,-0.109835,-1.179744,0.192815,0.170632,-0.000379,-0.252808,-0.079147,-0.403108,-0.331809,0.159935,-0.132785,-0.103313,0.098582,0.207974,0.166502,-0.021803,-0.112635,0.083943,-0.625329,-0.174567,-0.022670,0.200488,0.120925,-0.197156,0.199051,0.134759,0.045098,-0.011537,0.069253,0.060005,-0.016775,0.045246,-0.212813,-0.016137,-0.039650,0.107498,0.073016,0.053668,-0.090092,-0.351577,0.037219,-0.009691,-0.074358,-0.272914,-0.284707,-0.132032,0.021667,-0.039713,-0.287193,0.221642,0.192100,0.107070,-0.162973,-0.186754,0.257957,0.215230,0.102504,-0.026610,0.016479,-0.081594,-0.422041,0.224279,-0.322812,-0.195118,-0.071616,0.315364,0.086602,0.128320,0.015623,0.084211,0.250455,0.261033,0.139271,-0.042948,-0.091441,0.230623,0.218752,-0.483830,-0.073110,-0.001248,-0.310210,0.121674,0.012276,-0.307581,0.181931,0.301190,0.098627,0.418127,-0.271405,-0.216262,-0.193511,-0.314206,0.259548,-0.256898,-0.142419,-0.182679,-0.056608,-0.265209,0.214932,-0.398396,0.088171,-0.112938,-0.539321,0.103298,-0.508116,-0.530688,-0.096682,0.126612,-0.029961,-0.374418,-0.072420,-0.169460,-0.416949,0.387845,-0.003683,0.442333,-0.025612,0.113957,0.524661,0.432491,-0.158749,-0.214822,-0.088559,0.252201,-0.058199,-0.108034,-0.017126,-0.029421,-0.216219,-0.235172,0.096619,-0.196860,0.545924,-0.087867,0.113581,-0.174777,-0.356908,-0.231110,-0.299205,-0.245884,-0.193537,0.160062,0.149854,0.234339,-0.224955,0.101887,0.060516,-0.262133,-0.159989,-0.017941,0.131119,0.089069,0.112387,-0.017695,-0.113797,0.010670,0.222563,-0.118631,-0.171373,-0.031924,-0.057754,-0.892343,0.039613,-0.114486,0.046638,0.104778,0.070459,-0.210605,0.231118,0.072739
};

#endif


